function [Y,Xf,Af] = myNeuralNetworkFunction(X,~,~)
%MYNEURALNETWORKFUNCTION neural network simulation function.
%
% Generated by Neural Network Toolbox function genFunction, 18-Aug-2017 11:33:24.
% 
% [Y] = myNeuralNetworkFunction(X,~,~) takes these arguments:
% 
%   X = 1xTS cell, 1 inputs over TS timsteps
%   Each X{1,ts} = 5xQ matrix, input #1 at timestep ts.
% 
% and returns:
%   Y = 1xTS cell of 1 outputs over TS timesteps.
%   Each Y{1,ts} = 3xQ matrix, output #1 at timestep ts.
% 
% where Q is number of samples (or series) and TS is the number of timesteps.

%#ok<*RPMT0>

  % ===== NEURAL NETWORK CONSTANTS =====
  
  % Input 1
  x1_step1_xoffset = [110754.937055863;5.24564148108127;6268.07416687461;27.5235927077194;2.7517668425433];
  x1_step1_gain = [1.21635630432432e-06;0.127913011910239;9.35334669005283e-05;0.00489461776860107;0.217772486280972];
  x1_step1_ymin = -1;
  
  % Layer 1
  b1 = [4.8581389501126875;-4.8325383903963948;-4.8062390533999295;-4.7936393430364319;-4.7742092360002388;-4.7544122186392892;4.7352512815475043;-4.7148336964870072;4.6886914756731155;-4.6866137655977429;4.6639254458784087;4.6371348355795368;4.6130431330807271;4.5885571231302462;-4.5784101165129352;-4.5603206366465638;4.5406475001054094;-4.5213142013088907;4.5021745911069155;4.4642315539971245;4.4596765740394995;-4.4442189692238516;-4.424043667620559;4.40239111082718;4.3851289437552694;4.3652999469642477;-4.3516245046069661;-4.3268225014440214;-4.3069258659899168;4.2884940330003669;-4.268841859276379;-4.2446297008157385;4.2219238831457817;4.2086079933145664;4.1904238192774663;-4.1556767024833743;4.1523494266875032;-4.1458361594891331;4.0847256601557591;-4.090034740908032;4.0741332598767688;-4.0528168690322381;-4.0310193880543181;-4.0142054858118321;-3.9990011175428091;-4.0113580098680766;3.9606413413764701;3.9401384442773351;3.9153609481095448;-3.9468559671923376;3.8792818707559964;-3.8614441493122222;3.8406356629247136;-3.8207815517504939;3.7945794811992877;3.7792929869692542;3.7612188134995854;-3.7414250893397769;3.7236709552114173;3.6851892438920704;-3.6847890173094138;-3.6694150902408946;-3.6433862211329777;-3.6267731930308131;3.6071801738569138;-3.5908367609473451;-3.5660602581641045;3.5487982329490331;-3.5120749050087126;3.5121480725297647;3.4851079490758412;-3.4713006280126226;-3.4523990433361358;-3.4299326017884186;3.4131022917492517;-3.3876462498854565;3.3788868553493034;3.3582764494925259;3.3656766962963736;3.3142781719352703;-3.2955627445401112;3.2787603420439932;-3.2724565418780522;3.2479136759237526;-3.2174685580821438;3.1989496824364805;-3.206280436094898;-3.1600287526570625;-3.1686949010109879;3.1161047381528966;3.099999375934952;3.0859708393115346;-3.0755294148959376;3.0468501770011192;-3.024586630382037;-2.9964955560303759;-3.0470040126417142;2.9657426204072439;2.9525291143638226;2.9268472233375702;-2.9106030752619927;2.8926501761277637;-2.8572275747293681;-2.8556452458009098;-2.8932720969308314;2.8318893335595714;2.7912568689458621;2.7893299146421247;-2.7473302173758816;2.7326226123934578;-2.7206718767002966;2.685907259958674;2.6507309489740831;2.6794159507153692;2.6597168329842158;-2.5784762473359435;-2.5915256838795049;-2.5546152029321538;2.5616893437701171;-2.5666923072023833;-2.5255282580565148;2.5173010752910194;-2.43397020234845;2.4607679066206978;2.4230733157492002;2.4216771055804873;2.4087588366953163;2.4171093789372207;2.3722340963661792;2.326295440180346;2.329098841816061;-2.2997868540923787;-2.2450164427304875;2.2832020218033389;2.2431344799781736;2.2369177206928241;-2.2119681132493634;2.1844654443445268;2.1600534016595296;-2.148570000029113;2.0670995685206952;2.1113560276835623;2.1109686668241912;2.0694286721806607;2.0492797094204822;-2.03409362951529;-2.0210023267256432;-1.9955393837872162;1.9383146180333746;1.9575051556844851;1.9578461028883958;-1.9012074713088762;1.9071949554883612;1.8127784775408495;1.8449131635163984;-1.793348550869488;-1.8501189290084701;-1.7848641301945773;1.7622787226483831;-1.7900864944591544;1.7511834043653127;-1.6709914585517069;1.729511692350965;-1.8122968969069166;1.6856973315849191;1.6418792472857491;-1.6830805731557279;-1.6224383509684452;1.6391744226994533;-1.5276552419166258;-1.5392376119304705;1.5114468378679282;1.4764672662571829;1.4863120219571968;1.4846902495883743;-1.4757605269852712;-1.4264885274770651;-1.3922277662034308;-1.4266774441407455;-1.3560232922065516;1.3423254322343616;-1.3881136124316873;-1.3480850105554787;1.2134024931000382;-1.2295253928847012;-1.2587930401392744;-1.2596904404520728;-1.2223302403916119;-1.1741950458522443;1.1753230432211672;1.1356624661943402;1.1369376649076388;1.1083163512155283;-1.0163247526419152;1.0721340131911852;1.0489078246508521;1.0417389714331446;1.0228742593698996;1.0509219879748886;0.99197111266765403;-0.93415608045688125;0.98625973540848555;0.80653315710988116;-0.96284488677324032;-0.88539432590806078;0.920619008971158;0.94894244461162092;0.84407272192828309;0.8123030030802032;-0.8299264040732498;0.81959278688206016;-0.72178761765494093;-0.69781945289519509;0.70804970206567197;0.66676296960491777;0.63773668216946677;0.69656361395739919;0.5294039998665595;-0.67842278973275838;0.63827038722381257;0.58649398579857159;-0.53551622360877615;0.70475312134044565;-0.49061443421737627;-0.47110217326626153;0.44414664754731364;-0.36422036443439287;0.43273234181773346;0.44263566524473652;-0.3760244664536383;-0.38945692970269102;-0.31832479911061662;0.28699247419268226;0.3259112747959344;-0.30163644716500104;-0.25798730324099595;0.33899410672153002;0.26293284170560721;-0.24636735200565971;0.22589623548129212;-0.17870544306304961;-0.2010607261325521;0.029663282270560937;0.13430283195586323;0.10243745326329062;0.17288388447602787;-0.10425992046309478;0.0232628208735884;-0.040507401173964251;0.043979315165788284;0.028917798273807492;-0.016400045032416492;0.073395822693599094;0.067502424077600653;0.10585714884207897;0.1460248243378558;-0.1409184513517312;0.16574403796476694;-0.19413397389340983;-0.15302223039696977;0.20863104811737884;0.20963142840675039;-0.24486383054926411;0.26005793895988455;0.28192734113798207;0.22103030491223574;0.36705650144632818;0.28919683871381596;0.33949070715057156;-0.41868939849012343;-0.25531299406503699;0.39875828196264451;-0.48407413762314688;-0.47361259292878127;-0.47979247029650901;0.50625819331182453;0.49568222247670435;0.51774791280008969;-0.55623584912174351;-0.57170828245845973;0.59337083575739635;-0.6710572076215876;-0.77265102191747437;0.66537809951582194;-0.68393068181062466;0.73592890947563783;0.73283259995243655;0.68984323784760182;-0.71983080994609405;0.75909227103514876;0.78121142284964207;0.75569369955113963;0.80261507986090708;0.88369750443665152;-0.89070537354522672;-0.89463628680223506;0.96626388388701556;-0.91740395427755539;-0.96532436668800625;-1.0177583138221045;-0.96507254776332463;0.98925391742610291;1.0143625222608692;-1.0284063492114288;-0.94757807437335484;1.0946478019479362;-1.1006285245865128;1.1224025548718197;1.1594070211883967;-1.071239597727863;-1.1264827342599555;-1.2573158999331213;1.2153483514707435;-1.4427024375196715;-1.311320771256034;-1.2624620652720433;-1.3229463893775866;-1.2990661081233461;-1.3687938738184204;1.3073720931943957;1.3737104754061014;-1.3848891778318526;1.4185982611672725;-1.3948326315456439;-1.4483287203851147;1.4715729601200569;1.4702444071565473;-1.5871904582454914;1.4913179225561037;-1.5186861728071026;1.5983301613923069;1.5760804442614378;1.5821509820846593;1.4610396288019638;1.6453353595003444;-1.6288583976057383;-1.59450103725882;1.6973937008042754;-1.785496078371148;-1.7663434719683337;1.7657099230841831;1.8424659940873507;1.8030348081597971;-1.8205153651998587;-1.7677558157452045;-1.8418810652038329;1.7849477316217797;-1.8043267106563028;1.9178730760181888;1.9585080339485046;-1.9521824971669353;-1.9267615823360289;-1.9718547384230309;-1.9747695213734178;-2.0352369507807588;2.0396915703899956;-2.030631206110006;-2.0802085981682663;2.0570064038279252;-2.1244439892424718;-2.1609425554924777;2.1891177873270724;-2.1895394704351681;2.2327247433556066;2.2242697183034683;2.2447558418833125;-2.2600261197494449;2.2846533484370024;-2.2661533366279114;2.2909901569939461;2.3981580167796435;2.3984601900440841;-2.3792573129899082;2.4128785501270418;-2.2331218251403628;-2.4624997120591301;-2.461617455461794;-2.4609192817586245;-2.4808459192300458;-2.5398671140205198;-2.5324050678122667;2.556624694561024;-2.543792726334908;2.5912683810131178;2.6235471664084651;2.6398079680247735;-2.6775161513736041;-2.6794639544221828;-2.6962973057356656;2.7050057202269753;2.7296420098699716;-2.7434572281267919;2.7776874080016967;2.7930072999093438;2.8088785618273318;2.8256199041297987;-2.8446422852870969;-2.8894445671455697;2.8861504769551263;2.7902241830164254;-2.9364521986877272;-2.9380907233630364;-2.9592479256188917;-2.9908392410386377;-3.0038252847463656;-3.0309953771827631;3.0393189816615327;-3.0508319876003864;3.0827374680695927;3.1859847201861036;3.1269512341497778;3.136248763919006;3.1355424448062372;-3.1778783902204277;3.1951584724985773;-3.2134283763364122;3.2388242871294031;3.2555932752070604;-3.2732994959949702;-3.2759307247045522;-3.3110490598015043;3.3468101283216241;3.3513222232284932;-3.3756122611385351;3.3925244528793304;3.4157568284004332;-3.4316940443702437;3.4514014522252432;-3.4828449334866574;3.4899969629615035;-3.4809569908309896;-3.537825980214615;-3.5632152144535167;-3.5699067849895991;3.5783215820908771;-3.6056890056914659;3.626066823257144;-3.6664146499514416;-3.6375549923997137;-3.7098157781453622;3.7565880339742588;-3.7240477213445224;-3.7376335629286048;-3.7838337264124333;3.7847080573252461;-3.7773366530681254;3.8337360753573191;-3.8450373000651878;3.8608090951524598;-3.879224099877812;3.9178047451607725;-3.9286540757769832;-3.9363308988946679;-3.9568779127814198;3.9769730029218771;3.9965158521565596;4.0148022265328454;-4.0330276530409996;4.035669843046497;4.0700951201404596;4.1158849730070539;4.1332752666485169;4.1186523491382934;-4.1534646365660217;4.1639642531900849;-4.188410546776657;-4.1913064473780866;4.2298644839605331;-4.2490705975790863;-4.2646647423455297;4.2945028468481228;4.3102534475330385;-4.3157592513923904;4.3576007942304598;-4.3759957375299194;4.3703953597056353;4.3662724176911158;-4.4137840867830693;4.4444753944614321;4.4574187061906132;4.4804660089766291;4.5022533893683603;-4.5152376353818129;-4.5394918350729254;-4.5447313206661155;4.5798569003153702;4.599276719286169;-4.5805156132241445;4.6350549726377572;4.6603144956246227;4.6605920232818541;4.6936202880195657;4.7154412198660003;4.7349136133445207;4.7546556318015192;-4.7708992497339207;-4.7937055634413532;-4.8213844012668998;-4.8317269109369114;-4.8398253180950395];
  IW1_1 = [-3.0175377299142481 -0.32997054854294988 -0.81780951268906688 -2.3471099365640469 2.8466182645037796;2.8496033280048612 -1.0951864050660587 -3.3668002513461892 0.80711938332406408 1.4951992138766408;2.6096746696319002 1.586707266143869 0.84461904072801874 2.4117397840784904 2.7806926592948109;1.4717945309795639 1.0531720400845077 -2.6298530201181625 3.6180129264906138 -0.51070746595641747;1.5894859908374654 1.6773036278806284 -2.8056150422275672 -1.7194304070758681 2.7155743899360241;1.604554270712327 2.8563255822315643 1.4728016353173394 -0.11396251187249798 -3.2601507420771365;-0.97786921197436072 4.289763228480334 -1.3843151120131589 -1.1250139224253448 1.0009863626834661;1.5527709075274931 -3.0753600755412287 1.6050218734895776 0.23749358144260721 3.0077483330491246;-2.5955573473562543 -2.8519828572262753 -0.91856694266629246 -1.8567931814177423 -2.1098293990404708;1.4548786788881209 1.3832972349815391 0.89303845430994555 -3.0557167001286554 3.0507991350060957;-2.7369778793398596 -2.3733968314716902 -2.7955740758227119 -0.36798509639032922 1.5480477687465388;-1.6461633218397913 0.18815801660047524 3.0320549906440939 -2.4071089787169782 2.4109546068690442;-3.0385119722118192 0.19704394143313361 2.0032811894484324 -3.1725916287726266 0.48527283984936515;-2.4268688553097908 2.1834872806741297 1.498788494060131 2.7519518693998619 1.7805828029377468;3.2264759691870073 -0.1490403427104664 3.1222428392265007 -0.68953716395031595 -1.7024622083805261;1.5923250323772498 -0.87079055116066806 -0.95374555526036475 3.7723086336284521 -2.2601540086055354;-2.0876875118186558 1.9571861828228037 1.3389533995320759 2.9958178904327966 -2.1415557591388352;3.0401164906193388 1.6291850645956432 0.50983766689675891 -3.3257782938495 0.5707979826856252;-3.7685708917614629 0.16222993962727852 0.2430903419995234 1.457197834524703 2.6703511211374242;-0.74057984525336573 -1.8357883058259834 -2.712026507208217 2.4622492200701549 -2.5276294411048656;-1.1943844298859152 -3.5375819141214104 -2.5385826762069335 1.4705987346455225 -0.98333848947861524;2.7848479186067232 0.9029839161834059 -0.50712430919142748 0.54899192264715047 3.7967805019856318;2.5701554990799758 -2.0716523695392755 -2.370707857554641 -2.4549532311599229 0.99933202350893657;-1.7965179913139881 -2.614897518832966 1.7507107389629093 1.5661466095448651 2.8230616746350186;-0.072902361160439369 1.8175683570214971 3.4658194714299997 -1.9389467049285722 -2.1123486720783462;-0.40236606858375223 -1.9351729171510874 -3.5462842457360049 -0.96598850274363102 2.4700170094443963;1.5452744463679253 -0.61523897119812831 0.37213263273010178 4.1368030946286005 1.8574390924102562;1.5321088589515479 1.3742844715438558 -3.0216200578183874 2.60789980684546 -1.8370771611329531;2.8654444864210826 -1.5830017447540214 3.398828926158457 -1.097023899324655 -0.27184566315983982;-1.7436396092929991 1.8393401820787756 3.8068740564833257 -1.4167767536517117 -0.7859359330994431;1.73501402524043 -1.0163405786564408 -4.1804029885959837 1.048940308496106 0.96018510030829141;1.0535906097946734 1.2475600417382866 2.9890753793381593 2.787886239175505 2.0448138879489712;-1.9459379150490983 1.1684794994616245 -2.7801444405069149 2.3496647760703691 -2.279951566703867;-3.4080624654349663 -0.51527548273362389 1.646607439073051 0.82093179812141881 2.8778400610166699;-0.011605588183964191 -3.4530574819531878 2.0395640287340897 -1.203270090853841 2.4517467742260752;3.6035779535748107 -1.3023505358071472 0.28093191084556163 2.7714835151724095 -1.1187781269441759;-1.7867850111999573 -0.8473588503438142 4.3129760399716579 -0.64497939140220684 -0.78298056864910526;0.65453048599819419 -1.8005554625495024 3.0957096304957736 3.1401312079729893 0.5498390161870309;-2.0348762675072116 -2.2332319857583127 0.89314630467093192 -3.425869833557758 1.4385265013576258;2.0443343209937272 2.6151911348039509 -2.9348833853409095 0.26876338685547624 1.9709958045175262;-2.3399272801219921 -0.66958725200237224 -2.6962024794770505 2.0684167147594099 2.4638744927313021;0.046227148574617787 3.1064068963073281 -2.549124667970962 -2.571532130480132 -0.89019377881740469;1.7832294008769731 -0.97375702265585373 -4.1104972006314853 -1.4658385563269998 -0.63730282645428571;2.2926815068225093 1.5788330422955372 -2.3022330064128766 -1.828220775683876 2.675685021698365;4.2673324506507564 -0.96340798666138405 1.0803712550053701 -1.6601476941073192 0.67572852950157813;0.34701599560598528 2.2895073616823565 3.2696043781029993 -0.72340818359316683 2.5942660438782883;-3.3790891555789324 2.3865729566873228 -1.3580436697902216 0.45436925589115468 -2.0888221841430537;-2.8161954127936206 -0.98319714728352692 -0.71593707863578082 -3.624194814803078 0.9851878438902143;-1.8949227999284559 -2.220152452330721 3.7917615086390364 0.41475690076467137 0.69355675820361262;2.0232790102255858 1.7113714148191139 2.6336352295148662 -1.3451376564755337 2.7359502316685398;-1.6354824779249175 2.9890810289336005 1.1750004346541805 -1.7205204645075174 -2.7556918169261375;2.3170351574896881 -1.2723812844422075 3.5996732964354248 -1.8946832526161097 0.0026083856518950375;-2.3255371345278184 1.5526551084586375 2.4191476560076284 -3.1357877647345012 0.19560182016113875;2.7098752112400897 -0.38669668144257463 -1.0301916917445613 2.8812511218370704 -2.5861509531789646;-1.0081656263096577 2.2642248824462738 1.0974554774183432 2.9568646935690368 2.7382799039398931;-2.1234279964907432 1.8879917453417392 -1.7915370174796366 2.2374354233490084 2.6963358350952711;-2.3262818983881171 -3.1081852286630669 -1.9130876632911893 2.1268070522872664 -0.57353391556909628;0.93844735000076618 2.9234662703630363 1.4585580598337051 -2.6145492866109694 2.2773404349765869;-0.20884304654116362 3.8330332612735134 0.21787268617512826 -1.092361832502907 -2.7505878361573695;-1.9291863641490501 0.17026607635374724 -1.1588452852752866 -4.0319424879903307 1.5281331104330429;2.1190556673985701 2.4615532173463945 0.65725329147504719 -3.1951966562761349 -1.5334695726575256;1.2190334574518433 1.2585213636121979 3.5881242685992643 -2.6370460736575634 -0.78383102491855272;0.45056588608899889 -3.1266507911773442 0.75984461535027659 1.8085451089720599 3.1192468806944822;3.3064532610771531 -2.3787126157684062 0.41045735505482256 0.99270496951283238 -2.4077307885664623;-3.2565975107249638 -1.4150497805979745 1.2702247440479226 0.65436588153083519 -2.9827240153757835;3.429604564085003 3.316322412176385 0.15276731073342484 -0.81709697492103972 -0.22775755494840635;1.9073163142600913 2.4483977009338442 -3.140795249429901 -1.600106323876211 -1.2209689156352928;-1.1910732362998395 2.9033597161445219 2.192299506945298 0.020393263856664678 2.9818975882019978;0.42902802297337461 -1.1412402987841472 3.1416040260958389 1.6529986548595392 3.087903846745145;-3.3087462935358065 0.2646309650264031 -1.1350229183224523 2.0437679099627846 -2.6584863011012936;-2.6622239997664869 -2.4474049150016701 2.8016556071118779 0.44612852231712136 -1.5709159584723842;0.28374582512376462 -3.5760882188720524 -1.4141215632257633 2.2810897385460325 1.8627223280615819;2.1512114588690778 -2.803645650284265 2.9785220534186085 1.1212731755988743 -0.96027672070048908;2.7492333162516065 1.1339496369010595 -0.28137238238740536 -2.3780358119138647 3.0000037655421976;-2.9618767259640002 -0.038621440353852607 -0.69290588418077859 0.035136098592210764 3.7797438972259219;0.70002011556867139 -3.179554953325602 -2.8845766667629902 -1.5679936965399037 1.4761988340668337;-0.21643201484244165 -0.029649307389484462 -2.7429130645707827 -2.984949502203019 2.6483390572147165;-3.2460888696859023 -2.3426016747922271 -1.2687605525138654 -2.3422217935054741 -0.6508401966687043;-1.2532784967900064 -3.4585031190107136 1.8002615949207041 -2.3409728042821123 1.0638697707106706;-2.138511379134171 2.2431281392227742 1.7938382401673183 1.1049256258746567 3.0825012038892532;3.8700877436182037 0.79599528428657751 2.5497897869068376 -0.90194848602768918 0.78257321919726608;-1.1071263436016563 2.5150774612674556 -2.8714949746559175 1.1371709642354912 2.539117306432467;0.2703505230896176 1.8506315546762879 3.2282023965220112 -2.2910211262567839 2.0699089239392721;-2.2025207718749016 0.55785275903422726 2.8037025697745763 -3.2341189565598922 -0.095939849983623537;1.0986304073225051 3.3929780851324098 2.9126445414625493 0.34926971342947077 1.4952285962598941;-1.4753219619180211 2.3583401577581595 -2.8461462599590637 -1.373136666605715 2.412106211681758;0.9731516063010125 3.1269194928872079 -0.81080273970409034 2.8548442468953561 -1.9674072977542454;1.2943664249457068 -3.4163423984295811 1.3978096544113909 2.7802271026534049 -0.71560014319735588;1.6981700790366689 2.4942249895126198 1.5594265514490386 -0.7371862913913958 3.3571927344154724;-0.4211857923336918 0.95352997748928858 -2.3427880361657749 -4.0362104741461691 -0.8315299160356221;-2.7954845753593758 3.2940910285230829 -1.5513046253152085 1.1536843885982284 1.0684148413639856;-2.1385216695824529 0.21661916246602297 1.3609325535021608 2.655367440529484 3.1602682785185645;2.5050248592928326 -0.13007838609479094 -0.14127788934309959 2.8579210778330375 2.9992281365714333;-2.5200801511490472 2.1910281068680373 0.90111935773448282 -3.2129567237429737 1.1151697993222016;2.4842434355904679 -2.0715463861597194 -2.0089266666860022 -0.37690805810716227 -2.9837319371036033;0.32241997630358199 -0.015828459360868623 -2.7411493079242772 0.69643342005068964 -3.9357716552129665;3.1977074536977446 2.566255693862495 2.104260001142666 1.1986171239662178 0.73239166478245576;-3.6914309475763378 0.65333394266573275 2.3357847743206173 1.9202213041680651 0.58752609682578527;-0.3848582975248212 2.2561205438296099 2.8496500039459969 0.9753564215927838 3.0289691443832218;-2.7617491544036867 1.6758425861751698 -2.7530340759493033 1.5935626977100343 1.7282544320605338;3.7120404982324002 0.68887873355761764 -2.5572979222248691 -1.0168228047879935 1.3047703567487281;-3.4767998942357505 -1.7757782566500302 -2.8135288830720597 0.57448380294896495 0.16619667097762084;2.3942072246161081 1.4491497910816 -0.10019751704122312 -3.3617786335129907 -2.1074669786187448;1.7537294384899853 -2.2844038775685238 -1.6830510318684901 -2.4266899772980528 2.5477602907616768;2.4289215295627447 0.80971502459675104 2.58752812914146 3.1620737914484649 0.23502278750924313;-2.5468478537070243 0.99371960749809551 -2.449290873011011 -1.3182444217980667 -2.8697960078143727;-0.86276641168772539 1.9759628915917531 -3.9212710625676017 0.81623462858564155 1.6885713573472234;-1.7934018202294004 2.8921016775421 0.42455535159722524 3.4175024384258905 0.14692455704413571;1.7560009610759539 2.8204833396168674 1.5923512687877297 -1.8318921360534821 -2.5736612371669736;-0.5556248467213929 2.17928855287956 -1.5237557550969416 -2.4865021655492043 3.1590201843593313;3.462462983856009 0.68969287245491262 -2.6956919434884359 -1.3273741894267792 -1.4232224370836539;-2.040349000334627 2.7501009514954515 -1.0347720340486981 2.7818646783538483 -1.7366670245588225;-2.0719381625078017 0.69116815294641176 -2.5466000453581059 -0.96136781454360254 -3.3913672013580229;-2.570742886621316 -3.498285900725012 0.083267441470638262 -1.643364862204314 -1.3611756727626405;-2.2093746911252281 -2.2957526413287419 2.476767895412769 -2.1127851700292584 -1.6424080308991735;3.1815844208571789 3.1343732495256895 1.1254942819386975 -0.8795804486030625 1.3273383775658016;0.62443506597805287 -0.13792821567081462 -3.1832583645878514 -1.0122175231644737 -3.4668350669412176;0.42218805041992297 2.9620294443269417 -0.95560028054543988 -3.1704338135893897 -1.9425685565330577;-2.5361924245957912 -2.0745858743626155 -3.1827276318555571 -0.46250242778226852 -1.5575665918204806;2.5857768948114064 0.37436980729413083 -0.012667163893645814 -2.9928694582130317 2.7626393227136821;2.5721328210678438 2.7378825535245181 -1.4527737253696216 2.4150848509155143 -1.1857714274174709;-0.79430141408006194 -2.5317429147133312 2.7251343197575753 -2.6461597684480922 1.410597223067239;0.18506736628649631 1.5813658193749656 4.2795179898539448 1.0038360979025358 1.439666284451987;-1.0888590473943793 -1.5260365771168707 -0.16002563307498663 3.1959486881390142 3.1255210910599098;-2.3678412947381244 -2.5193613844439842 2.194167397066042 -1.4791528976418205 -2.1601403917141666;-1.9224651211501853 -0.076853987632145959 -2.678685451744601 -0.38417449439979373 3.5377713004310101;-2.9812944245752302 -2.4317033107553248 -0.86401877270915506 0.55343486904669359 2.7695558586369544;-1.6903893394027112 -2.0074721992685522 2.3093449945971769 -2.3472374982876576 -2.3884710350565967;-2.1877142795213187 -2.4791255974348072 3.5348112398120595 -0.02202234796300365 -0.27706293607019306;-0.83789419916713692 -3.5936390029453547 2.1835032442008826 1.4486114381095379 -1.7622022228121093;-3.4193984592354285 -2.3592427614745368 0.90016984486183083 -2.1160370617400139 0.9911630719702359;2.5579589723188429 -2.9097547421390786 -1.0006743279381449 2.1404503579358383 -1.7187204222432921;2.7149495180350405 0.83930287566646444 2.6720095969625852 2.8750730165386864 0.50659513839338666;-0.082236673561982235 -1.8725684453109683 -3.2181798923652174 2.971458521042655 0.89160918556445279;-0.19907831641669366 0.74141974254731158 4.39637483391434 0.12015747510360528 1.9061982436327372;-2.1139159447204587 2.5642513287756072 1.9252459155783523 -2.8840639450099252 -0.66594801653009916;2.619531313268165 -0.009652791301623543 2.1796349113533688 1.6135603569248789 -3.0506702742050278;-2.0238727288918592 0.55474454660987449 -1.5778247367322074 -4.073403790404754 0.21231709380910144;-2.8602481946506662 -0.403527904375586 1.8486046566979257 3.369805232309373 -0.6712641581827602;1.9218243051990622 -2.5797427398757447 2.2992564722235702 0.82446678094719783 -2.6883722052936734;-2.2869853939928997 -0.22817520440909159 -3.6846981157025249 2.051487990297765 -0.86116432059720127;-2.2707068008914901 3.1109536288802748 0.46120541693385037 -2.8790116843322142 -0.43078511519066504;-0.63911652897624205 2.4465938289582638 3.115751463137614 -2.6923770733823837 0.31604098480680276;-3.2120898735730674 -1.8285634149379049 0.39475952410782761 -1.947406727892504 2.4339383317690984;-2.763302640197471 -2.1888932069161027 -1.2650337646260057 2.688893292400957 1.5115977587319296;2.97003575941558 0.4359072355870689 0.80134181608771571 2.7618500570650668 2.4996707610053184;3.1652896745655577 0.96975519750385963 -0.97256051266950472 1.3829132005790021 -3.1164545496895841;0.79550549884563238 -0.88773264396059759 2.7301036002400898 2.3924846124592016 -2.9871583386745271;-3.5540644892570157 -2.3844670359558338 -0.70924121481474023 -2.1827402815209749 -0.3438449547077011;-1.8473951621447706 3.1109354827068949 -0.052854287074837886 0.52520094535833339 3.1883896989981677;-1.1170528488232481 -3.152266236795608 1.45074646873944 2.3294736739994204 2.1712854139334512;2.2219476636732582 -2.7155729601624254 3.2775079016371267 -0.66012364248869282 -0.32041927450797164;-2.8937409726059036 -2.1341182397861895 -1.028374886199932 2.9222365245177317 -0.9920964299785936;-2.4950307507772571 -1.8399231198370578 1.8045900094534923 -2.2396749746978624 -2.434377439578419;-3.074757257789928 1.131770133554836 2.2353829402984875 -1.6596824379997226 2.2517091007754626;1.5048491908915369 0.7593718718394048 4.5830361150371344 0.12396275647421384 0.10081994199191031;1.3025578411386889 -2.4986312750271304 -2.6032429395350398 -2.4411714078567197 -1.6694141448007109;1.349696084158565 3.9313179934480096 -1.2863694516360602 2.0587235487552182 -0.64569199700626045;-0.52101533456194227 2.5371605729633329 1.8031133014824312 0.64227331808780397 -3.6353641236936629;0.54882946287722756 2.7817277752887239 -2.573584400825085 0.34158442776858211 2.9431702231449788;-1.5114387327504297 -3.2285534917648331 -2.0065848597858813 2.4326102764027597 -0.98590320719609703;1.5872510404339395 2.353005818363862 1.3720263763283616 2.3279705123529291 2.8759379969946437;-1.9295151798954655 2.6810959266149603 0.77264517137643796 1.775250408917364 -2.975858886966297;1.4029659825971357 3.5963402213358346 0.68008211515967765 -1.3618759358549728 2.4524805139311012;-2.9480018517391855 3.3326334702549532 1.4625995078774567 -0.45305652165728555 1.1510416151114589;-1.0505532227352832 2.2816921210539842 -3.6157984082582324 2.0159656675249646 0.30912539174410114;1.3424778020017551 0.14472648119729875 -1.5625977921971146 -4.071040014295173 1.5965935262611806;2.1865268251390932 -2.5114676898396864 -0.37875840416982265 -3.0328319157228516 1.7621123550794902;-2.967741215941099 -0.70591307929191349 -1.8351747773840159 -1.6322016353524389 -2.8654395034261642;2.9258441546822764 -2.4802557592275125 1.4817488094479061 0.16993777255609063 2.59074813388944;1.4325635086466106 -2.4155632124542863 1.8435506654675196 2.4499151842357993 -2.5033946813769874;-0.090008578547923962 3.7476185872441854 -1.8367814890599108 1.8063745517834084 -1.7260898466392356;-0.65358933943491682 -2.0074487066824918 2.2864265164305158 -1.8951360346485431 -3.2348266055382484;-0.41040586347675678 -1.5689017040285902 -2.7795891646333675 -1.6004341456995654 3.261987667424183;-1.3442360059766141 -1.1551853365928695 2.3334266719585397 2.4342012284465753 -3.0007012676512534;0.061708445826010622 -0.30285975470340631 -3.1688023288638956 3.5874103085270144 0.69822256255112047;0.2006150643961368 2.7571644805115225 1.6399822930544734 2.5904570177867159 2.550872677340918;2.3488950019743284 -3.5303823787902204 -0.99470222197400926 -1.826292427793422 1.1234797228963522;1.8350608673983306 2.1225383446969079 1.9190682880707228 -2.5872839388147626 2.2742532967428213;1.2145667869414782 0.5013287525125435 0.034919587734017231 2.8381128044097852 -3.7121835658271678;-1.1841718658433349 3.4468818888941861 -0.095418645832158769 0.82475580878083399 3.0914793132989051;2.2125754971058247 -1.1047475207698574 2.6570237077876802 3.1850385500191343 0.17338499518175954;0.33632953152169182 -0.50668318204824681 -1.4229052000578679 -4.1878008059521479 1.8511811990419595;-1.2924097752666699 -3.8845656419831478 -0.44454360765696455 0.73489070139890789 -2.5065285122999166;2.8422077375650781 -2.0860934765432559 3.0252134547106531 -1.3978928643720274 0.30093579903043416;2.5176434884443699 1.0900122627127899 -3.0557283937240483 2.1950364892397554 1.3612908232487173;0.35111857253559919 -1.0803217695716523 3.0684174895148457 -1.9804792572556218 2.9641383419281806;1.1309310104548065 3.6749783904665825 -2.8646460868791741 -0.52868952888571252 -0.51045593052531046;0.68374248006110949 -3.0787372147137249 1.3544175524778999 -0.87226931229334481 -3.3226810266780391;-1.7818963613033902 2.9743077300463865 0.52576237084671429 1.9889371826459457 -2.6987060324161964;-2.7903883306365667 0.54750939252187381 2.4595260110201043 2.4750628501991825 1.8133673871082436;-0.28963779214890151 2.0671207890964052 -1.3884424243575764 -2.918529747471676 2.9567167847162095;-2.0519982242083286 3.7974051179690615 0.93145218731675172 -1.3850081566801178 1.4694863827016631;2.5417426798721201 -1.6112198600081689 2.3382675624851323 -2.7878171665244054 -1.1547361784194894;-1.9754347290743757 -0.55352174442141644 -3.1201747096246009 1.1136262502629042 2.8904395743786497;-2.6338857320416942 -0.34121371441546605 -3.9959526869475681 0.68192049671377264 0.19493102857088537;-1.8997721554865488 1.4907641941897198 2.7148897760566659 -1.9051582814203061 2.5917839032433969;-1.8586670003479113 2.1764055860162452 1.0256434186208077 -2.4053256470099162 -2.9191582550744055;-0.55619263133516417 -3.4076112390528075 -2.2903052900386847 -0.21123006319161455 -2.4942020204949604;-1.4537715879441373 -2.4827428560611668 -0.77419433826762729 3.1798774877771327 2.1153587551505488;2.8534080293849513 -0.94440172294221958 -2.5737665639140537 0.34631414052218235 2.7844835428754506;-0.45497484500744423 -2.8802320179384324 -1.5112256524654255 -3.0470610709787205 1.8488779544758003;-2.4118739068105377 0.14256826040525594 -1.8589672964209794 -3.4173867805319578 -1.5811660576947415;2.9874665761913866 -1.2149108529703916 -1.2305640724347193 2.2518654763533879 -2.5605773705492321;3.0622027766463535 -2.0625317615110368 -2.2209792442074292 -0.30494968368707692 2.2127896710946118;-0.64940786306606668 -3.0898494844651716 -1.6158599240221458 -1.2497778293468702 3.0566284738118141;-2.4894733568870429 2.5360616717854358 -2.359475603045794 1.7788175875540013 -1.4224398456817615;-2.0463427927791451 1.4860516164224762 3.2411485845412837 -1.148308413982343 -2.3048840664314718;-0.96366353680185912 -0.32582795206931453 -4.3249568511915477 0.35472898429257355 -1.9039594033158749;0.63455016653086449 2.7634374213178772 2.8957277139754387 1.422299396238798 2.2123872129701354;-1.6804487084498831 -2.7933074637709447 -0.76724298542089009 2.6530772913725467 2.2544930487200494;0.97757761757785988 2.237565108096693 -3.922849290247286 -1.4113010742521714 0.65339112248501796;2.6124096806734145 2.9330779067253325 -1.9663707760809472 1.8544668946768164 0.8834160222656805;-2.1185135228808121 0.46372549553514719 1.8005565381686137 3.6007192927174163 -1.6192221006685346;-2.4978894903690194 -2.0683377452499525 1.9218373604177994 -2.7684868392272848 1.2950743692394089;-2.5474851212582235 1.2306799733787177 0.56778343751200633 1.1125509543338812 3.7325318377734562;-2.5581873985666039 -2.8111786147441871 2.624433202187225 -1.2169256591691753 -0.82028898462793831;-0.60882703274812999 -3.0748425524347356 3.3375795800690065 -1.5747353670642485 -0.43177146302598818;0.089334836806546539 -2.3953196967513239 -3.7245609562438138 -1.9477547988873261 -0.29604852515669289;-2.9170504120360095 2.7519360727293756 -1.3640475871385509 1.7875881393805484 -1.5366916176700192;-1.3709908436349412 -2.458127782372169 -2.586231880279434 2.8130717354181711 1.0047324796192838;2.0318829835849423 -1.754630299093521 -2.0565696114636554 -2.1393203786716799 2.750070419206053;-2.732968393823155 -2.5487442552457948 1.2160892618624779 1.5811251806353566 2.3137266050873144;3.3457222961709081 -0.43194265597014769 1.7234452315467075 -2.3487508579795793 1.927067859076409;1.3061815685581679 -2.7529443723819318 2.161594846498895 2.7917100873683101 -1.338012494181682;-0.095388183735861207 3.5634746544997165 0.73435577633472771 2.7208650268084287 1.6956415542487084;0.54158973719297854 -2.2772197074210996 -3.2038846497051439 -0.60844437287652087 -2.7467431766802806;-1.6258603435126937 -2.5230277979159528 2.6211758240737359 1.4350230255817205 -2.3532693272221858;-0.41794720368904692 -1.961966418422838 3.0507128258835152 -0.01346689086467682 -3.1816909217524523;3.2210579970671294 -0.31178958260029338 -1.5072364141131593 2.1454235539713977 -2.4834628122355928;0.5277934935064067 -4.4220267906583235 0.50153688026802867 -1.5871914269342504 0.95937141955451788;0.10377067892352761 2.6192676197335625 2.5517820962694597 -2.2603276839847646 -2.2523048560316057;-2.5722706841105718 -1.6306930351677138 2.0564269167964744 0.85469319429385293 3.0669459501048126;-0.093068980733196457 -1.610961232100389 2.6894762095429168 3.249258811671401 1.7679359995110047;0.86406636131450421 -3.0444778026802597 -0.45610222795965216 -2.1283320432319961 2.9689795087064867;3.0909622652872581 -3.5074597581763474 -0.50588531066689157 -1.1882880491902736 -0.12405364850088613;-0.95661562067391626 -3.9958073473022062 0.49469229765025963 2.1429099797692972 1.3298237851972243;-0.97461123643109915 0.045447570693849221 -1.6998228545217293 -3.3881332543331224 2.8695571146590013;3.1402541213646753 1.6767108786745304 1.5983521969694949 2.8723440533901501 0.24346884550484962;-3.8213021933977611 1.0654143466724848 0.050975223081674424 2.1508507076339858 -1.775488237863057;2.4749731162071154 -2.6421945160848619 0.94420594613779274 0.37413286164525772 3.0621948751080401;2.4194999603430527 -2.424363313455919 -1.1165502847617441 -1.8158831240302509 -2.691707439906128;2.4850510509874901 2.374877873393479 -3.1303118829159655 -0.052046699881432269 -1.5134964165019453;-2.6439869922116306 2.6335490378579993 -0.15374467907562805 0.098614838566628962 3.0983437891773806;-1.9859603343268113 0.2780745321938119 -1.1417813548801357 4.1148862840979259 -1.1213067051764647;-1.2712301836840749 -2.9309071905968218 2.1921820658276707 2.5941842287059758 -1.3756123035525822;1.1478821073775411 2.0733336290850706 1.7924396064657104 2.9573432612952182 -2.4334727548001318;-2.8477491534982184 -1.2925967498184041 1.3027223896201572 1.3577727742496517 3.2140750856827545;1.7738758304795579 -1.6471677584390689 -2.9234029369777583 -0.76775377787982524 -2.9091451775849571;-2.3976324726113081 1.427961450091227 -2.8585324897837161 2.542816389750794 -1.0103249599940172;1.1530755443102183 -3.6247811885481269 0.46627820554102939 -0.14336041437027172 2.982672255646714;-0.054425339516642655 -3.900501038298934 -1.7186643737082523 -2.320778370985848 -0.0010275795442056478;2.3580465329982268 1.4176182185430777 3.7472012197822022 -0.90872549706288386 0.97899071440384877;1.8120020521456575 0.87848870773952148 4.0207316802812363 1.7287813433154589 0.70023349163624937;3.900756403514142 0.25592177142944245 -2.0661295671275637 0.56419538977813788 1.9149846365030612;2.4824811851313524 1.4693139180599522 1.9068125064343437 1.6294530047023603 -2.988553072785153;-1.1701435842788259 1.4561036133916121 2.7906884938958534 3.4922469035428123 0.1931399181029787;1.2857821211240674 1.8265819668674872 0.62952319104658172 2.9939617960858578 -3.0311630135851981;-2.422785308821771 -1.7366811464938929 2.9324611005777039 0.19084426487203837 2.4768859046413625;-2.7533825881236931 1.107915683740814 2.5873648853468465 2.6781373661341639 -0.92571697320151269;2.0728811788964276 0.50125212040170208 0.41021454834679066 -3.2099935768315189 2.9177039328604768;-0.00058272769982590253 -0.88050436193136061 1.9337846339714928 -3.7977261299496878 -2.15105440644715;-0.19772634072827552 -4.3126239051315824 0.74696621520741413 -1.9243752188818908 0.79457028116348472;2.4060221106662016 1.6640128347018934 -2.8262825217527543 0.47523888158131794 2.5990258537719595;1.0702418813602792 -1.5891414608374077 -0.51595398838504258 0.29956834107205593 -4.41237323373426;0.91190507057222592 0.81330729043029149 1.1522189861690908 3.0689272748322423 -3.364501344709149;2.6764861573465764 1.8039780305716195 0.13307485047373663 0.28701727497737856 -3.6127109368423667;2.7120137156318638 -3.4751013921529168 -1.1158610738760224 -0.57834050514882973 1.6021874914049032;0.67699346676711247 -3.0262342134544569 3.6103174990278939 0.39648907737794781 0.82728302860891334;-2.4011490311133858 0.37604474987578779 2.5292705016473014 1.6324381974114015 -2.9292848035842307;-1.8369837223694916 -0.13010147062283337 2.2897095542589145 -3.3522318247224021 1.9462178271509376;2.8858663536789182 2.9099121756480679 -0.95252316968433304 2.2469998542856722 0.8770403512330418;-2.8796428878511913 1.8060116011313991 0.56658858953761293 -2.1852726083001506 -2.6293395639600869;-0.077123056846197802 1.8426582304762096 2.9412306218584678 -0.16708839977834003 -3.3867057927078705;-1.9374243658236148 -2.6189581040283247 2.5290319297974664 -1.4185197277492476 -2.1254875434425036;3.122738638099968 -2.8530727959411806 1.1074038278482132 -0.90022591633945526 1.894553001027433;1.4829891665953374 -2.8367899747406322 -2.0239315998898504 1.1309905658163242 -2.8143807109114904;0.010965322780749234 2.6884147474712847 1.3668378129440288 -2.9672502818773117 -2.3752707596259457;-0.19963943599459788 3.054337785219968 -2.9504245380747234 -1.5259922570672311 -1.76827724696261;-3.0670375860142896 1.2874631985787268 -0.65006618463297539 -2.1000047113669518 -2.7550567357810523;1.3682035116070443 -2.7598793131747588 1.2575175998487458 -2.2869752857597883 2.6937189133808985;-3.1285595660740806 1.4479242938187791 2.9162477358453267 -1.2081764819749725 1.3149306245659556;-2.5411769141498843 -2.3411349802345702 1.894841601824953 2.3978107622766087 1.4255347992419618;0.25365131312902478 -4.4915866339953583 -0.18289084378979861 -0.34029351222956505 1.7695570886018563;-3.8501151412879167 1.3438801515104628 2.4610295453692279 -0.9143050814211694 0.16161599003952531;2.9976245723151438 -1.556160825505289 -0.77887060647799633 -2.9635644839416342 -1.6121968247824205;1.9954143612651836 0.97078015412693708 2.9742388919444265 2.9491026829227351 1.0222191382224397;1.5570671262170503 1.7277441946978822 3.3145167011286403 -0.59465344137580589 -2.62570059908251;-2.4205686774891579 0.54654738374763856 2.525633023182738 2.3229603375112298 -2.3750254211611246;1.3432624163720812 2.0115789506312498 -0.92018586338005037 0.97445507774564444 -3.9928243683371458;0.15938705833648631 -2.3416211609374424 -0.40611890919914273 -1.0911020395989968 4.0818976102267124;2.7426320432550066 1.353184012948937 -1.4712079287357451 2.1897023302989007 2.7044972285264501;0.99847244967080784 3.1006192012555815 1.8558291680458203 1.8896241161324394 -2.4744782886382697;2.3641560682578957 2.9039457359554479 3.0345225023410287 -0.29778195622966031 -0.26228053727272743;-0.32007215687556007 -2.9355082661512664 2.9255695131822561 2.2355123792567833 1.1026332277750095;-0.68815019545870482 -1.3589246847537171 0.59334600163309104 4.0415236772299332 -2.1290784904647588;3.4690642727037004 -1.4303059698926888 1.0562582509514065 -0.80142440159540884 2.7353073715345313;-3.3451135394819249 1.5081955743939077 -2.8307771477202679 -1.3216680006085055 0.47388951419312209;-3.1571197739166657 0.83318795088446473 3.429209705289864 0.82768695358477329 -0.63200501429731293;-2.4780154120909983 2.1825447996984391 -0.36534173774052348 3.0520480636258367 -1.7616375807879685;-1.1422951922893103 -1.3768360918451554 -3.024251164565023 2.0670653074887126 2.6286452506468789;2.224849727303905 -1.9473017606014638 2.6637466455149603 -0.80137698828154991 2.6573713389288049;2.2306447976600947 -3.018581649612265 1.9244131356632035 1.7298122972373466 1.675397487422106;-2.6866274279506119 1.6710623181470221 2.3454342153066747 2.7834104063298648 -0.56391885600753133;-0.89539922778008219 -2.4837003998367999 -1.7829400945330924 0.30449096586537361 3.6802572250779448;0.38513232902513667 -1.6896004256908594 2.6165637866105826 0.58357694713225394 -3.6527219734061833;-1.4889554624392292 0.92697919333291579 2.9399480070413291 -3.3821454183141455 0.5907734668739355;0.95626349757506324 -1.6557795173272472 -2.3083431499924059 -2.6208564816448394 2.7745661858868926;1.3946807242720134 1.5510974917040612 -0.99696475208411639 -3.4417704104417139 -2.5067134272298559;-1.8171606363805299 -0.14540962402175239 -1.9194978653109578 -3.5183535643060231 -2.1333877499467606;-0.58787405484056587 -2.8434922168487637 1.7579965925173895 -0.32935372384288891 3.4691947654856663;-2.6240206444194638 1.5463746697664076 -1.1899599739146312 -2.6576601554034784 -2.3648188664410492;2.6772449155547684 -2.2287855482959658 2.2045563276812685 2.2938349914368361 -1.1130366622980017;-2.9398760371116275 -1.8457719177511667 2.9338925178611346 1.3553874657013296 0.80696535476664066;-2.511825468905919 -1.6880595145144421 -0.71180041439308095 -3.1837038338621957 -1.9114612380230767;-1.2222296672566959 0.2995166773984258 -0.031603906878896831 -4.5005892957254279 1.2939607749244126;-2.1272285244806355 -2.8906385621689723 1.3622518840942746 -2.0539622599675584 2.0953668302551622;-0.12734357072845273 -1.2937331470866811 4.6393919096851119 -0.60789016323635459 0.039303269803089833;-1.2905769532126257 -3.2108439897268042 0.87457758276758168 -3.0173731685550678 1.2106764416875482;2.6504464443512963 -2.2667670429602498 0.45267884014662535 -2.862058589388893 1.7410829272729165;3.1887231517327264 2.1614154189201042 -1.2830737042632361 1.7252206434289374 -1.9873796078985411;-4.1283980205292634 -1.9238705261680944 -0.39877117870718065 -1.3488868271592838 0.93248879979862453;1.9687777504067927 0.85680443865738665 1.7816400675377038 2.3222022191143625 -3.2096479438033176;-1.7120596723519046 3.4969827791782966 2.867962734778041 -0.45926264898763669 0.11896716203013186;-0.86611248075524871 -0.75575104693710837 2.5442610933031493 -0.70809323464890328 3.8969837011429012;0.28275925819439396 1.1676317216050163 -2.8879246839195574 -2.7131266715255142 2.5311526525656847;3.0519363906309604 1.7721513947430052 1.2251040548030228 -3.1009404316646889 0.003457496895060573;-0.79978330429656075 -0.67354076310783084 -0.63025342745588064 -4.0920575258011382 -2.2535342697773362;4.3380982620649133 1.3938242462768164 -0.56787753741827274 0.85399107702976118 1.3548076080922364;-1.2790632185811999 -2.4927960807689216 -2.4656005067864624 -1.6638365863238249 2.639278569225485;1.4520207737479618 3.1554794986909211 2.296352861953908 2.4731432211553708 0.077670809311748759;1.1327209406880632 -2.1291787184465272 -1.1869326136047995 2.4314847537772422 3.2294051856692043;0.31048469352484459 -1.7230937220070017 -1.885659595624767 3.4617127593630288 -2.2472525429684032;1.7845993172295103 2.6182496574665444 -1.4057319842071281 -0.056458010915324972 -3.4504594681291403;2.0036879059838482 -0.14852385086471792 -1.4921867368096122 -3.3650158254260267 -2.4350054924657325;-3.0700055208294259 2.5214577152020401 0.46326218487176718 -2.6158354822592917 -0.96043295464917322;-4.5459070206794117 -1.2760627047890685 0.73898143998989019 0.4024104420776185 -0.9673754704103571;3.7581222521966748 -1.7067914826993293 -0.80118738540421852 1.9748861512342497 -1.4339958067987639;-2.5192974701682775 -3.573999705926421 -0.81063578271804826 -1.1545229106557933 1.4782079047141248;-3.4991997554009973 1.3084911974403317 0.11442055150474821 -0.27782497172836185 -3.0684200684657186;1.1914580554693475 -1.3601521010498145 3.0461740871193252 2.7074474239788846 -1.9069049005509138;2.4309376204236894 -0.3203548024832687 2.916530883477483 2.6593701594547574 -1.3071874505192209;1.6684889098075117 1.0844091267183849 2.1931137400700358 -3.3369789694292611 -1.9070282818198296;-2.1229128055123621 -3.0214463462978975 -0.68015036983162092 1.4736468310261699 -2.6988460298478603;-1.5308509219992084 -2.1235584978760689 3.8581041529651601 0.88364733730825307 1.107326781907356;-0.38692167046342762 2.5759750249656603 -3.4825333743822968 -0.6472628016304921 -2.0756048364753257;2.7580170070818979 1.1105421874803056 -2.513487746452344 2.2050246050675417 -1.9813690046799051;-2.0475005017351893 -2.2021873541701646 -2.4211945285102172 -0.66727632203130183 -2.9090477040392226;2.3775360800482184 -2.4742045461214812 -2.2534616949613802 -2.1484417896606329 -1.4519380995692841;1.4328173136022224 -4.0502848127507409 -1.7258216057259077 1.3192223372747915 0.52531082322010159;-0.8871558360995746 -3.5475818940526049 -1.4299630637534846 0.9050380111779579 2.6902452418066014;-1.9952864253830682 -0.50135239498192052 -3.1083561956854004 -1.1216149836819129 -2.9143904860646401;-0.64840203596680246 1.417741589250008 0.36053667048013466 2.7481186168296334 3.6711577433592271;-0.1361128885633954 1.3814071771957457 -2.5619200331258423 3.1068144971275142 -2.3363396552926305;-2.3533848127074202 0.19148120235077792 -2.1901260432490317 2.9802767073187186 2.0694503064459662;0.6774816296320324 -2.9779973048486714 0.99364719475005281 -2.8371568620569474 2.2796222641693547;-1.952023252505884 0.93635686761854531 2.5593401100666902 -1.9090854156147306 2.9764402644119641;-0.65413640758426095 -2.110224786127346 2.7069850684378114 -2.6955094924488443 -2.0288395868481106;1.0153905347314469 -4.4887562939125365 0.88157578738751108 1.3145504459203103 0.064160353895950414;-1.5260494871284396 -2.462786930918706 3.0132844622223582 -2.3878966163058482 -0.60260661085693046;-1.8818787114612481 -3.2224126025662083 0.48126602855200845 -0.82762531145167983 -2.9418169166850556;1.0616843180182631 -3.0702631271837797 0.15366502722033734 3.5222453804981284 0.7024803217561737;-2.6167951553122095 -3.3868729024013007 -1.879078432835082 0.53481793422811663 1.1888282137943194;3.1994800045026768 -1.7920598503444043 -0.67780424652318461 -1.2906706604490037 -2.8012585509306827;3.9476883880598854 -1.5000518244042957 -0.06764058168958885 -2.3830346502632471 0.16231189393371742;1.4947116101610969 -1.8309723066946499 -2.7862124850632752 -0.38177669831335964 3.1698535701121378;-1.1272648778976786 -1.8029271492950167 2.8307217366671868 3.3268599655872895 -0.063831791585931302;0.56145829867933139 2.6188859697138316 -2.8996942206907339 -2.5036588631100845 1.2990438305014793;-4.1988422907568062 2.1472798220488927 -0.67179545428741883 -0.33627865994962869 -0.93611996583913759;2.5194565611374968 0.3469737641844024 1.9944857929147364 2.2146549706780694 -2.8885815091345712;2.5969476885697964 -2.129992136267723 -0.69731530004505915 -3.1057616541024089 -1.3844528671897236;2.6795660191689388 -2.4721509561238406 0.97353291586400648 1.6049726090849072 2.5736344128650792;-1.5124243363484897 -2.6696650946783467 2.0121910699329004 3.0230871775569046 -0.96914674232614251;0.60737015519059379 2.698796019280187 2.5249856824134946 -1.4280780708806688 -2.7284897749535961;-3.0913064568529514 1.2815331778377326 2.7265555113577147 -2.3889406437095442 0.082833456528523253;-0.90799772533994683 0.70912436714572324 -3.7789961673447898 2.2800958850425124 -1.6218740213086007;-1.5300435544045545 -1.5245258212553567 -1.9708583690572883 3.3420181000364564 1.9550899816017289;-2.6167677137969352 -2.5761619811872793 3.0582270735041197 0.84284699962463039 0.18619171179073724;-2.5292566136935397 0.96999813470748575 0.74514292588518882 3.1501914497913313 2.4084954728027652;-0.57039575021320998 3.5650507712591741 0.029388281222481823 -2.2517148551663944 2.316699174963385;-2.94890145106391 -2.3950863101302224 0.82405271668988522 1.8414509509162762 -2.2483739102480116;0.82538424393559595 -2.0285509296917441 2.6719606975720831 -1.2873057242527863 -3.1545947823045317;-0.40532867316361354 -1.4253238608133421 0.45351190746964631 -1.1313109627740443 4.4690580823806201;1.4230680065496339 -3.0960402501493141 -2.1675006337418936 -2.5010771279708228 0.99825199379633145;1.4996507050406738 1.3800326115045578 -0.35933936767557123 2.4001806836643582 -3.6698179370797175;1.4679829983121224 -1.0557971107238679 -0.76743205536486914 1.3226244829222393 4.2287367165192729;-2.65941921804732 2.7434876146337221 2.6472122702979668 1.3576845951621481 0.076615677851869443;-3.7861227448568275 -0.8587136215684994 1.0543412603683218 2.6829377270553967 0.39051335271057019;-1.6355707566124027 1.1072441141537284 1.7854838714535626 -3.9337403454434483 0.97649552085418068;0.23466173139175836 -2.5209021118003796 1.6082775390519484 3.3065534283029949 1.9026218371076458;1.7321388580242327 -1.3269392820717243 -1.7125801512582839 -0.024907120412887458 3.9827037830153609;-1.0056567929223967 -3.6641852237665882 0.17862940193497162 2.7417203957186493 -1.2682462134388806;2.4395575882715357 1.9674706841917757 0.45139135353692056 1.8470034066505259 -3.1575434724541691;1.547917431932206 2.6322271062178144 -2.4388345876166717 2.3479622893652481 1.65778410841083;3.6325544176784232 -1.1562299456073393 0.47908254665710776 -2.6615061337063075 -1.3036022450216058;0.35267491830750453 2.0658635866638955 2.1657758118125079 -0.47000963732154666 3.7766866213309829;-2.5761748365057726 -3.0314309721005821 -1.0830980993289798 1.7339275995847478 -1.8873627659240353;-2.5490346922731058 0.1909848453117243 2.1643862619124419 2.7908733705793765 2.1104919157549515;0.85909835678084123 2.5719957795511879 1.7868654521871863 2.5931797888703145 -2.5057179846620192;2.222915541013323 0.81123937876594276 -1.0223968422022498 3.1171063695029271 -2.7907776314012094;-0.86557489653329156 -1.8583594888568142 -0.52453008769116627 0.92300958131494593 4.2616234276627898;-3.0178687156920945 -1.4838934213580079 -0.83447627987047202 0.599545184862461 -3.3530058846074886;-2.0920967442597043 -0.42326541951014163 2.4680654532655906 3.1776981343721356 1.6735957770082379;-2.4875566168470407 -0.54353627715085173 1.699594966140421 -3.3450344697017247 1.6978721203629976;-2.2402572090199375 -1.4360373686517049 -0.71390169582208374 3.9419076658862151 -0.64327218202373937;-1.1160605858495656 1.0903363065492386 3.6184713837700073 -1.7203658265138151 -2.2448675037444406;0.15757012750776933 1.4016291530801903 2.5806874278849286 -2.6828209322061003 2.7791635133999018;-0.50958603028862448 -0.91056526283332873 3.4696396891456875 3.0023427316475702 -1.2166469534045838;3.2663793632090918 -0.61483242927604531 1.7885718774738331 -3.0039294127779632 -0.52081336553878421;0.12706188331630905 -2.4510775863262571 -2.5474410304998321 -2.3473345797957315 -2.2270237548755207;3.1199375427959133 -3.3397547622791199 -0.76758304077122597 0.74669250413999111 -1.217357405659685;1.6424484770332677 -2.4969614812060934 1.0825321239735857 -2.9199343057648415 -2.2143078687144557;3.3913010101370267 -1.3514244745374238 -0.26868397275580147 -1.2910592846182789 2.9425410640495526;-2.078367594581962 1.2311988850998639 -3.6033635745475712 -0.78766870212183837 -2.0273877140592176;1.4298233957649227 3.7059003950261005 -2.1997445879962996 -0.75755118212085804 -1.5350312809077959;-1.693155977884155 3.4864109310989027 2.6741113730603763 -0.91556237529252837 -0.72949885103826473;1.4705784037490641 -0.36056352352817783 -4.1464289412538609 0.9397439224130697 1.7809108845993891;1.3702511215588578 -1.8279843576726813 2.557415924528355 -2.3460182704743291 -2.5086502581488714;-2.5594060381529498 1.5708820458986128 -2.5114819544403568 -1.8472114335489849 2.1947338601868793;-1.7107636682638345 1.7748314333302848 1.1778896385942592 -2.8163663762361302 -2.8670373716450155;-3.2780168597281962 2.8626335319741063 -0.0043761580778795993 -2.1001125825683138 -0.45960880678625343;1.1983316829776696 1.743744561157621 -2.0148330793990121 1.9261086817013491 -3.3560815367952594;2.5986345939900426 -2.9720123522799606 0.54152508306479585 -2.0042727494677082 1.9108047880069701;-1.3833534917653512 1.6140662424471384 -3.3598363988136288 2.137345676919415 1.7787428248363717;2.8510821197418657 -0.37274035534395983 1.7397541926343065 1.9599538724655268 -2.9003036500517316;1.6595273049185384 -2.7410622954729074 0.94811004824992617 3.072487330696771 1.7102488545735046;-2.8334484202905936 -2.3044955206477034 -2.5604635155245359 1.8872207636688263 0.32176258579975725;0.71760946089542876 2.271914056644043 -3.1145755140104745 -1.450349657524495 2.4620867463286591;-1.029656388932862 -2.9773641835518703 -3.1955294308177975 -1.7407043607370314 0.53651541388034829;2.4499023720141011 -1.9809126533747909 -2.8288496766511293 0.13595759240712835 2.3656937958355844;-4.3118353553232591 1.4197081149218342 -0.55388029984303722 -1.5210680255901239 -0.68770583841216759;-0.28914930736814654 3.0323280426785715 2.5541520177706873 2.5533716086217004 -1.0950044809001858;-1.0868276586317631 0.22425512062937106 1.6580653737048794 4.4070527435277143 -0.17056228508057933;-0.58229721057096406 3.0236679575620506 0.30096110319011116 0.85078479975510868 -3.6392614637426051;1.7498534884754227 -2.2295407044657471 2.3558310633864723 -1.5219117050796038 2.7764437452551913;-1.3100525456230174 3.3446073360585666 -2.9680487716507979 1.331311242221225 -0.24566317014578173;2.2395592606093198 0.32171025153412958 3.2095356101159158 -2.0940115413297993 -1.9337640285871551;-0.30526246604497542 1.986826308255107 -4.3080356662379931 -0.47000272888940575 -0.74414981557468374;-3.2568070407682561 -3.2459777205822284 0.080689623882619521 -0.82646347175724066 1.3780478436847203;-2.6857662729968723 2.5844917773228846 -2.9506632342748054 0.3368420926233901 -0.79341878172401292;1.5619351390375464 1.7686344441771356 0.41634082513868331 3.4983464203193408 -2.2880156263870739;-0.16884360762216646 -2.4151221089356154 -3.1495229491087047 1.6223020531599956 2.2649643552848695;-2.5667033199140161 0.18876441753817591 1.9786279967396798 3.5559430404590446 0.62815461802707839;-1.4789153878004855 -1.6238877986933473 3.3158582050668848 -2.4840858084552151 -1.1746653883421792;1.0098839811895763 0.43724021708331656 3.9200084231620673 0.26785840526288962 -2.6228395849407571;-1.9167060461282299 -0.63999162645103391 2.9838738532233737 -2.7795221517840072 -1.7388508288176179;3.1952348807517978 -1.1431191334437052 0.069360105583444145 3.4429642915548357 0.29984480048408668;-2.5704064141653418 -3.1930400440044719 -2.2832032480637565 1.0230725898783777 -0.66295235844398426;2.6597043467578496 -1.561074970797409 -2.5463594773497555 2.2755754953756844 1.5369803556574773;-1.3335240337113081 -2.7681965325890272 0.044602261286475368 2.8190246663362086 -2.4807389458017077;1.7065868545168179 2.7349851012042921 0.5574954229748571 2.767537679717333 2.2510159178776754;-3.1523947432082084 1.5486843652981528 2.6515128942045183 -0.91900756535870987 1.8118885356641261;-1.1574242507855208 2.3710198945564636 -2.2838631253267456 -2.7270713605147243 -1.9898894805392233;-3.0030706559933282 -2.4714674291371774 1.1858413405358679 0.29941933551154515 2.6309053279546828;0.61718664756501718 3.4103166624639427 0.13755147250380909 -2.3669833954361721 -2.4308890840124686;1.5752121930815619 2.5313797864507683 -2.8259903442045724 -2.411675338120455 0.92217532427969839;0.46937126415896191 0.77896313179301413 4.4121037000179397 -1.7514125421197186 0.43380575809717281;-0.66812208926869499 -0.54070608628826522 0.82377572879000627 -3.6162308529972171 -3.007576743939278;1.1097148511970609 -1.9025166540556142 -0.48350698847081192 1.9119178118237314 -3.8683694867910674;1.1159841237644053 1.9003551673198191 3.3233639630061482 1.8749428382484468 2.0411829677064075;1.91826939112193 -2.9373724964732419 1.6613233562027423 0.45298912617144299 2.8391780954791814;1.3528356568359763 -4.2705556137686065 -0.45018882117288517 -1.5762476984065008 -0.75392185640454001;2.6055568029689127 1.5641240764163165 2.0114638285194708 1.9473455434371572 -2.5587222239991947;-3.99068152361053 2.3475445829430188 0.44686365263370181 0.7212960931174065 1.175273600872643;1.6044225460317076 1.6536608265819766 0.41511288623990128 3.4890008692433736 -2.4639652569585548;-2.2301362728556384 1.2042701439157097 1.526255677272905 3.3261577692180544 1.9370738669098515;-4.240267225366634 -0.90733941222766679 -1.4648773565621318 -1.6066211346368677 0.39000504196010566;1.3251202897181398 -1.3477083260407856 -3.2200186959329682 0.57345605975144953 -3.0490204988134137;-0.44365553393449941 2.7676323707811226 0.68313381954292973 -1.3509411360927068 3.6508873234866055;-0.39784478642633841 -1.7643920145296028 3.5537694951301941 1.1899666682762406 2.5020717397905576;1.2827417306958724 2.49821463471118 -0.73929859782868113 2.3546780853209612 3.0829272789278308;1.7625870316226007 1.8858874906059699 -2.5272863516510511 1.6033261925797946 -2.8130687653351329;-1.1712438726131362 2.7317103342993141 -0.44735730836265897 -2.9167718144545414 -2.4693941375120949;1.6448469998118398 0.052650546268491791 -2.0316558864802006 3.2805230587840382 2.4249717245423823;-0.73639004348985682 1.2082129143287803 -0.87228964878372217 -4.203980311811943 1.7464925570392815;2.3224570814382206 3.0557194575333684 2.2594676235694662 -0.56680005528556943 1.8776591628976784;3.8635979711903272 -0.63472685802737339 -1.1082959780022612 2.6922939266918289 0.022825608108325027;-2.0108713845133792 -3.6239414962964798 -0.90432147592161549 2.29623576164076 -0.61512273983339205;1.2400094613076125 4.0100747072888439 -1.5268193146184419 -1.4522004514966207 1.2158522679036583;0.68973043715804172 1.0965733156777524 -2.9905148294711497 2.0430507897304317 2.9639881617956716;0.38667446811170919 -1.3695266625810292 -2.2680290390025784 3.7109792426994637 1.6155220998870203;2.276802528475073 3.058928415160143 -2.543360400238881 -1.5845350227358712 0.14505734758795802;-2.0407968597132848 -2.3907548366223463 -0.61530379546164582 -3.211181940450563 -1.7469609691679238;-1.8314364287164144 1.5342526886522783 -2.4426144568332244 -2.7674399240698291 2.0530258556139489;-3.8396099225408782 1.0398496276323548 -2.0295131899213859 -1.5222252343703793 -1.1865323621871069;4.1713354930827489 -1.0694622383877401 -0.71259752202820459 -2.0194205728152372 0.64198320787368879;0.89147842335345973 -2.1919553177277535 -2.3324964134457447 2.6185101157816502 2.3759438599250475;-0.16796898783054845 -3.1495911818786269 -0.057831424740125016 -2.9822562964467645 2.2299823183032923;1.3981383469909612 -0.78072078467028927 2.0627817272791482 0.93207504476738101 3.9856913747906559;0.31826480758255721 -2.2235322138656359 -1.8048504523797215 -2.3728404350137597 3.0969805472005834;1.1872398074399075 1.8101326798271835 2.2835741946454626 2.7157582422590214 2.527825814048887;0.28403507722836951 -0.84241630022011282 -2.7642573659428633 -2.1575176069373336 -3.2365639467403255;1.6477609025504583 2.5459615914981146 -0.79105558261183795 0.016487902081588162 -3.7040288916981052;0.12863398271665236 1.3379726964738448 -2.8367432693048777 2.8524111515715482 -2.3565214619491641;3.7642575019476188 0.54151590292860941 -2.1297339119754364 -1.102440163899979 -1.8243722287596493;-1.4647544359227396 -1.6806322263439013 -2.6033691632627072 -2.3599065271350974 -2.4925243663820997;-2.5817449590201527 2.9945743453397831 -2.0353027726975355 -1.8753911655770705 -0.49749993253223385;-3.103807370368687 -1.8661208268468237 -2.8516238883684037 -0.80826539413788434 -1.2677364009010117;-3.1435388646496616 3.0574745809819133 -1.6709007322271316 -1.1984669907004883 0.29732535348648736;-0.70454247843291107 -2.0173297498037406 -2.3700535378194498 -1.9760405450357268 3.0894472988160593];
  
  % Layer 2
  b2 = [-0.015268958375877113;-0.60125145910723576;0.83957756493632574];
  LW2_1 = [-0.35764938124303564 -0.36426123559553047 0.65875592972293917 0.210558926368345 0.85418963864579889 -0.15125824757017101 -0.016579243213765995 -0.10956349455339083 0.051015170421256723 -0.87407307248107458 -0.48067639189555106 0.79085192194174703 -0.16688839311117229 0.84360288389082871 0.19979200740168579 0.40476463898062881 -0.087996825173295767 -1.0248711211582269 -0.7638819147735908 -0.45807558402925663 -0.66849653741379766 -0.34798392330950428 0.28982776977202512 -0.67516139308289669 0.34613914953283914 0.99246379777154836 0.6179479081099627 0.84110684584056905 0.15692308686096265 -0.85563027082419252 -0.065931337515294383 0.086903748416242488 0.81893486711069097 -0.75806880715763081 0.84361429583928393 -0.80571212712479201 0.70798217492410698 0.86207720854403558 -0.26504295592862748 0.40011789046330082 -0.11277175184766436 -0.063895972805454532 -0.47654348340081132 0.35002536437921006 -0.15980594843983356 -0.6415149769334576 0.16644645797932686 0.41221096353636866 0.26082034241472568 -0.49912845775225595 -0.0040683995481391889 -0.28540302325912847 -0.89542724707452426 0.90644208433074325 -0.13747329697334074 1.0282551059365734 0.5276686488968686 0.60625842891487181 -0.19579166592243652 -0.91861079940916113 0.040699222374997047 0.73392781770037763 -0.48518886849121379 -0.53773073830224949 0.70737668212392169 -0.64565620842164906 -0.80377343409329016 -0.50442627104046922 0.63001895170409028 0.054417425138080788 0.78741486355109513 0.68443192335819403 0.39861113892441352 0.0070541726317037354 -0.81598267980390793 0.6809941553390374 0.24293320463825271 0.91979330492895273 0.53506489350886932 -0.26987647443736651 -0.032912460162765896 0.11509017054674102 -0.84790802499809215 -0.70780058738607965 -0.27857625956705184 0.7953136252179096 -0.76484701307238601 -0.13223302531068862 0.16174615246313259 0.37574385807515909 -0.67219958101842547 -0.32399121954368248 0.012864811218441673 0.021333320074468577 -0.27694770309185746 0.305494482717934 -0.59156371240995831 -0.14826914739821148 0.35351179216330608 -0.77578859494352792 0.50467867515304765 0.85125231778611354 0.6821320029000445 0.95218980500640882 -0.90034341204968482 0.14714305813578937 0.48553386898698697 0.88139492341038195 -0.053357867501740035 1.0093372567576036 -0.13453446642934952 -0.57226438858659667 0.044150551094383803 0.12400919846073172 -0.65901447932037649 0.20978177452910415 0.19692314326714475 -0.71566471404449794 -0.070380771258096247 -1.0024358245837017 0.89643083547616087 0.77235340365142069 0.67859384378670107 -0.18345387626043264 -0.19292177411994971 0.18905820722630876 -0.38290802758037018 1.0237649432831701 0.67092055686963803 0.65132481818202348 -0.067652974920948974 0.12920975249125963 0.28142061238552568 0.89021990924802319 -0.006397410852109502 -0.45682247640562479 0.71892442978899918 -0.59257973220837978 0.87172626762375827 0.43481747002475368 -0.83311770158636156 0.1005461049916192 0.67529807113242635 0.47974350348487732 -0.44639000902559994 0.39669216028920479 0.90766249015202904 0.70651128510353212 -0.81516428748034309 0.11622214893727847 0.51544063223896519 -0.63419016359072 0.62317748256325622 -0.7943220763047476 0.27647568572115966 0.73853242706758149 0.20906097427212683 0.92374760368574482 0.42296838309126605 -0.19929177402609338 -0.36846755259670272 -0.14510451927298657 0.30498564675961737 0.96279565871633443 -0.83995898120751844 -0.052056860970410075 -0.86340848093474842 -0.47651303830602443 -0.31427051199212613 0.22843805503652814 -0.16795668635658997 0.18765230671352193 -0.87320849140225021 0.14714631901467964 -0.22464023856875606 -0.95433254520607391 0.90148950668589922 -0.00054070497332312742 0.52413893175019333 0.45634254709200489 -0.10402872314079684 -0.80744069167120236 -0.66937347849224449 0.69728922711198227 0.74861564148639981 0.46006535021399481 -0.90707713455005456 -0.47638580747554216 0.85433361781307537 -0.044323358565966239 -0.40223647830998249 0.77071615922200298 0.55025924770405532 0.88794670444447132 0.20071796756129998 -0.061172335884765637 -0.81985019352142163 -0.26032198535678858 -0.88960337884312168 -0.45036444751181415 -0.6419242911804045 0.21305524778835702 0.76080146120328151 0.37323477707648528 -0.96709364022968114 0.093802964438927258 0.86907923385756769 -0.23786005371176194 0.23744811101021152 0.51922760292980108 -0.82420386834320902 -0.76647970312390468 -0.080417779830099678 -0.64372512803368365 0.29115207198415499 -0.88295800374378941 -0.27009448357875038 0.25852001144792497 -0.22853282530969241 -0.3402851869090352 0.5998711521245188 0.75760164886400283 -0.54203683148622206 0.20016611585785987 0.72948455108687982 -0.19248814474925952 0.91164880361296174 -0.069483376017043894 -0.034278336620341465 0.41735521155672495 0.1154489569849665 0.71111205634577435 1.0643952204952805 -0.61891072808741832 -0.13668904944664068 0.61653532795777988 0.62860495997276467 -0.25043785375824118 0.68063331365631952 0.80895313731317042 0.008261834114651305 -0.44112668494921559 -0.32639690711181502 0.061136246630368575 -0.37766383815952359 0.6505570655126941 -0.30075480737282001 0.93136774442601888 -0.60057504499016789 0.81772095903779674 0.46801775414016072 0.53981614641867026 0.43888600367840908 -0.036336420401630078 0.26455981968341291 -0.12297945199403931 0.9165719256143372 0.32528797974541701 0.13485087737502602 0.93877188772139886 -0.13639365370123691 0.28068073649963188 0.73182627181066418 0.65494372524418065 -0.062296570968159042 0.86331895289151028 0.36932935991973881 -0.3276309229272294 0.019742538552495071 -0.85330618350864007 -0.085422225423092912 0.88481022710134938 0.91158002957608875 -0.27893084206776259 -0.08170686906936922 0.044143801647378578 -0.3410329543576282 -0.44105354221179954 -0.93642929111051254 0.19978126434765228 -0.42592455345627894 0.83805000534035334 -0.24873536792176013 -0.31456931063337201 0.59668030434443819 -0.97081437320064023 -0.46534284159224154 -0.76512855400988189 0.93122104848227738 -0.48214626459668064 1.0486139976751256 0.58072192936810441 -0.88110435354552219 0.37818224044935023 0.029911578044521332 0.30541281509566548 0.90257338280519805 -0.38465146317950999 -0.52393401083442859 0.69260847757697774 0.87795628509421375 -0.63810276674567368 0.32755587330715519 0.41453197045867457 0.93846102629773398 0.60441068883924953 0.078394372157293862 -0.70420848855462659 0.46479385207753082 0.96408942625576588 0.20918113491290208 0.059649422754690769 -0.075775840552775697 -0.7696976433838727 0.64973609868462545 0.46434229386154718 -0.79672380411757548 0.19988053606676501 -0.77824034341000492 0.035315565393050127 0.15535518897661824 -0.1356921760099935 0.15940806649051376 -0.561245725218255 -0.36525912590687815 0.95707945709026931 -0.63539721558085871 -0.61207737499001291 0.074143356748930078 0.19761178144772254 0.15365511306474169 -0.46982039896842093 -0.97080909206198729 -0.64113557999059234 0.60073009005005118 0.77039158533067309 1.0454500518899044 -0.66877413072523695 -0.53394230787117025 -0.21482566996078548 0.42547406019756862 0.78576449906590462 0.63899000997020006 0.18441229454218949 0.44684821215897874 -0.80401647276672317 -0.30344794366398931 0.95512870411237094 -0.25324358859040902 0.98026703379507873 0.95511995820846118 0.9096987091861215 0.098683289442322672 -0.23932282080021788 -0.12414293467794578 0.21461341870047923 0.22714694029295091 0.46483971242630201 0.97776935318312441 0.57903331983918516 0.20178132641109134 -0.21002375843516674 -0.065646983246604299 0.038470031075374139 0.34364960400710509 -0.53571852692255695 -0.53439167279466704 -0.62455339940750754 0.072634228940548981 -0.56641598783328906 1.0040049112636946 0.8105670010030589 0.57737806382067147 0.79524225477976163 0.8507824760633752 0.92017265102490209 -0.036448039126637355 0.4177124947984775 0.13454380733571411 -0.22399822404027941 -0.32153264166343448 0.071768709245307011 0.42328128890723887 0.42755031347482353 -0.83519605257663476 -0.440388598397153 -0.78922395770934373 -0.27818003573255501 0.37501748133163393 -0.51488444033471636 0.25131220739147703 -0.70523494763030092 -0.300056622980168 0.69642732623247927 -0.21553941097619378 -0.01851923716386546 0.87873057952726275 0.10579319684127218 -0.64992620848086724 0.49068248589716618 0.37755927918931464 0.77064728360664025 0.081964373724654357 0.1180104172919396 0.024906010278512625 -0.98944209637016356 -0.29370393723223076 -0.78053607362322619 0.36291534493722871 0.66394549598187125 -0.20045526124247329 -0.29024907641527325 -0.50471679040323159 -0.20656220171521059 -0.73259377469860754 0.93253886015972765 -0.42436988615048898 -0.9083544338782138 0.70097173043326055 0.89963189396152898 0.8159881984774936 -0.11357053760033664 0.89522271774032502 0.35489223840333817 -0.54292340631505487 0.45715802815759071 0.05694558730972786 0.31366446845113805 0.10676643296207282 -0.075589425622456158 0.32743731797796793 -0.50274670680403544 -0.12245226328638638 0.26238675957468932 -0.087875149484651 -0.084920266268842956 -0.18688083793317001 0.40836332620162347 0.78250214016159114 -0.88358181765596888 0.63671124953883085 -0.68203176304698176 -0.45136175716600135 0.77488283281724402 0.18982205552781864 -0.79083742885968256 0.92491772609422651 -0.767195395914679 0.035572957816459014 0.32984462399053455 0.75848938316632075 0.10543922212034956 -0.90332226111701075 -0.093230855108071164 -0.5002286550512407 0.36138355900112529 -0.58763316413672118 -0.63886189409691851 0.95652232053974284 -0.35836295372845905 0.84154823545018076 0.93384593401462568 -0.60530821078004315 -0.90212778620508205 1.0293624102718535 0.67150106319471758 0.72820195544575794 0.060380808190585257 0.81080025845729564 -0.27453999510420068 0.77475539769230251 0.46329774337459173 -0.55908654234436095 0.75448913863453437 -0.88263338438733285 -0.52347830434541076 -0.90690468759819221 -0.064185021039593282 0.56530745155780548 -0.43493872341756468 -0.16050678190218562 0.25408579065093828 -0.16209082366808303 -0.15856628260086292 0.54827022666769587 0.15928262281601502 -0.52162331412031571 0.7182822322074307 -0.18400284124925639 -0.75132780090231788 0.98485960231429825 -0.81424141178345033 -0.016262131927839651 -0.10106879345148111 0.20675418718370298 -1.031230466955307 -1.0293260557951724 0.95439833273456753 0.23884129222118775 0.48232157447773588;-0.36020215092763991 -0.6844015997156121 -0.16547854663260073 -0.061430266290786475 -0.79368345342819291 0.21428046638721823 -0.16460404526221589 0.76164770381122504 -0.087220259480402115 -0.8224480179522442 0.66560802120363227 0.83692526618266694 0.92688727433463547 -0.070092886667481022 -0.50016821090752028 0.25414442875092524 -0.55129149624920692 0.25698134161859965 -0.96814469625569699 -1.0437548667823831 0.69399404155358291 0.25457871024043754 0.33583958595355207 0.46569855781047681 0.6754188300121392 -0.97267199791335279 -0.8318287737250778 -0.31774907709813888 0.61922369795326393 -0.47272857984965477 0.98479558289970848 -0.34596316334160082 -0.15186244206412758 0.68031671962118523 0.76067097434238529 -0.62217563246617447 -0.96955641739731846 -0.25886362526144663 -0.58937407607327574 -0.41763764280956567 -0.85527098335571372 -0.41753745430997957 -0.64698872060753387 -0.55423054976518216 -0.097444968912222277 0.28083472486148209 0.85210663333748571 0.85119304407590046 0.85745022617175159 1.0259310746468304 0.32281720945536335 -0.5316658812285443 -0.094401652198834299 0.14974928749315639 -0.10597723572228324 0.0066492196439822005 0.072587178043585068 0.97679557046558363 -0.086282850465675784 -0.72817251756888379 -0.84139474958822058 -0.73749696261959952 1.0109924661369694 -0.69543429486079011 0.61277497866683073 0.15022748741844294 0.74654609511295733 -0.87019984696868491 -0.0019854484074554196 -0.80812669295243278 0.18075254686602546 -0.84434720746492209 -0.28294335464655723 0.83865437697629153 -0.48161825450811563 -0.11499034165198269 -0.074050489511464979 0.59155856236157345 0.77565473409903296 -1.0112699780755208 -0.20621644789160207 -0.4635124588289698 -0.81391575988594123 -0.14722201404051705 -0.74900460328751917 -0.34226904064285624 -0.82016890875402981 0.37556518659423255 0.26665147829473251 0.68454474729169257 -0.90370633654538124 0.32802846776876493 0.48065200548424031 -0.04180615469532363 -0.75342467273638147 0.67956417255304402 0.5444421736380588 -0.014428875501587456 0.45919240440284537 0.61234127500233038 -0.60887134306871871 0.70258151702988958 -0.89398558254777971 0.068453427720249926 1.0147025790036928 -0.16970886065207164 -1.01272399892067 0.041324560384520606 -0.34366145362648098 -0.012068847754651687 -0.11724090239162843 0.62408360067645863 0.64415824832131396 -0.59248038310232498 -0.95054248190743895 -0.54267418626066188 0.12633789915104132 -1.0021265760814331 -0.67415106023187221 -0.71431648491504762 -0.87956703922018942 -0.54168408538523671 0.25547837422095104 0.79659988313268981 0.22276138340225138 0.92490496410430045 0.33521439678524484 -0.87458426679172152 -0.86137795397581352 0.44840952203595946 -0.357806987462503 -0.6704504047032056 -0.66113712136072045 0.52110085867357647 -0.49365999897082508 -0.39605667673321465 0.62783233138369243 -0.019583797054013061 0.29722323723057487 0.67492518088952314 0.809789566189132 -0.79130424800601962 -0.5297073811456855 -0.29553224264832395 0.49695069543174486 0.24039820956790781 -0.20313575959685207 0.64802244871781878 0.11877256232814966 -0.32096124364383771 0.054158115978468008 0.40451845886793719 0.32486349390228714 0.79892386400111326 -0.39561618914233176 -0.70550144312912122 1.0157455811017462 -0.50954674937635125 -0.91635432526850136 0.64421401424415359 0.96436847623595501 -0.81149238250427169 -0.89584313960188056 -0.011482648742543651 -0.74593687875513282 0.073336067151746592 0.82415763643930406 0.25988141457320713 0.32244059742430675 -0.39792380852482606 -0.90810978098069817 -0.697626254398927 0.71670992138254175 0.08449893790496181 -0.86661894283299812 0.50101966924681751 0.47710645439811511 -0.46231533079165177 0.9918221266365459 -0.75227958680333995 0.42787938370646222 -0.084200762307862984 -0.085016193706747428 -0.3790871031007777 0.4512352964274855 -0.3797113681262862 -0.22590039532180262 -0.42528417185697365 0.75248649783203858 0.062968691731728421 0.97123031162349827 -0.97053664399379858 0.25928023369276026 0.14358911444815228 0.78848524621674376 -0.11814884929628312 0.51505462262463397 -0.24011241998079091 0.6873912567485575 -0.017195257334710671 -0.53532912865951665 -0.39787394711483098 -0.61122474463734833 0.75548527903149332 0.22385586768732715 -1.0141895123849529 0.70484188750886656 -0.53450972539055219 -0.41011963557606534 0.55903986713484199 0.42586899072182394 -0.81625192789194856 0.69746637298025871 -0.51446067455334887 0.52326968943417529 0.9692257613173354 -0.65438628669363974 0.49942264280634069 -0.74304077317775274 -0.49412844777517595 -0.020966823492630546 0.47470920793517141 0.15135919968186617 0.62835747375597273 -0.52279861942290007 -0.94808107463105451 -0.53271263822451986 0.67188473404928739 -0.23002828991881996 0.48174515156165587 0.59921637462018185 -0.20940526317485095 0.086676789453750333 -0.33974745053729211 -0.2993479984001588 0.094066821743865742 -0.69969675146888011 -0.36627014151268134 -0.61510893922100007 -0.61589849281223774 0.78696639410987634 0.055309956408127088 -1.0733279520429093 -0.25222483642181942 -0.57598921008768456 -0.15278140293888498 0.54608622893947334 -0.33031436262279151 0.51051221989049733 -0.71055706381332251 -0.66208347314450877 0.85157312500919624 -0.16321022927494652 -0.55681122316657183 0.62569857114533822 -0.3780338523409093 0.54491152447436964 0.19628556459463864 0.7781152065720901 -0.7875356042402003 -0.78356682567855107 0.5720071516205868 0.16235698097006465 0.0081743151790031107 0.63985437931727907 -0.43250322077286446 0.62485470946274069 0.63083123464125912 0.67281722417074563 0.44259740414823762 -0.41514587745450765 0.28891258567648875 0.37740798791736963 0.29246130657042774 -0.2599619754681598 0.83732784303701979 0.13167476886459289 0.12674548431235877 -0.13992506812139063 0.075899511883909684 0.23583495578545657 0.36139982539657434 -0.43586560065462671 -0.6852952271902043 0.45321082855231654 -0.25967420982229844 0.20616925101699754 -0.22565691768906143 0.76125263048286651 -0.59592907614940571 0.12461552886726693 -0.65940369240685015 0.49124284244850874 -0.70709898151007422 0.096405541958049318 0.64131522707783095 -0.85155379627551597 -0.047039233740948226 0.26534296785086198 -0.72568179928996535 -0.6718235838978921 -0.80876910414624192 0.67734347188914357 -0.033018365150889975 0.073953487453323918 -0.53282732643972808 0.31601648931987214 -0.7961739297297965 -0.19801924245986047 -0.2269233541885102 0.54262068451626011 -0.57694473350990205 0.084671587320219871 -0.82380507791916879 -0.63470347372846292 0.3246079856898928 -0.10273404956623503 -0.78815270665610204 0.12365882900686423 0.21638799401945311 -0.27871171042477866 -0.48100449663246508 0.029175701583012501 0.73234590728687776 0.24845573833688564 0.79862738285494317 0.56022635476268567 -0.31862136593997109 0.19069425651392044 -0.969347744490479 -0.0088465095467574785 -0.049153943609854159 -0.69988201241478143 0.16110880105522232 0.59437778598888413 0.56734640292529981 -0.80749955199059176 -0.57067034867129096 0.019994421896010202 0.17209000119371212 -0.19966494024570647 0.51606213190445005 -0.75065403484107984 0.4418133114172032 0.83264340315061502 0.71275609444296473 0.80783463753614759 -0.54710012439846867 -0.0048410700814717472 -0.051159562474164186 -0.40827609098537737 0.32829506745036108 -1.0017215493242799 -0.37216295490985057 -0.38903400833611573 -0.71917768275294891 -0.38332277452923669 0.76877925328557817 0.87936334524570403 0.31668751168910303 0.43003116134951896 -0.51157872892870493 0.32652912402134338 -0.54240872574676779 0.74606807737650194 -0.2407877429922875 0.98616573140293418 0.61189348859610915 -0.48050855595208719 -0.31008636708076787 -0.62747813876569902 -0.068938704861287156 -0.0069917823476296406 0.22682016836459365 -0.86437014724493111 0.35665462267581172 0.56572755270598829 0.4496272569799204 -0.27570903193654173 0.87648827540255936 -0.30521245700068084 0.63100851284963122 -0.18406438798288852 0.7072511668300866 -0.0875071003195768 0.74097409098114642 0.13787228940606294 0.62341025462945288 -0.10296357906426329 0.2246298446714155 -0.33254416567666129 0.63931766038983051 0.45186757216255169 0.56913099613028506 -0.27241427432099441 0.11919986992383369 0.12640426438523564 0.91060384946540618 -0.69594233560079166 -0.67347266517356275 -0.60561202612388498 0.96219799118714511 -0.58549831224334525 -0.56850273714840882 -0.56340918043252908 -0.32223633959610309 0.19850096605452744 0.87253535490807765 0.31255848303695755 0.027041971920416352 0.60257691846461547 0.87787542558773213 0.97961424600620806 -0.17321643730414843 -0.19154840438599122 -0.5135160367472047 -0.45686350629864247 -0.13401019510710949 0.093816766764710499 0.20552729303025952 0.22303834160133768 0.17490997003431161 0.24559827416246438 -0.16961169629355649 -0.56268772140481804 0.49095969433335374 0.29755671526352284 0.16129607388457501 -0.29228130005969627 0.16368015827665455 -0.53620619738960995 0.80026232328413283 -0.086970183284573857 0.35436961556536095 0.0032407166286424465 -0.27645891600009631 0.38462439881218019 0.86632529620120791 -0.48505047622801756 -0.066814481270944942 -0.72918603666717141 0.42225727698594262 0.57756061339706843 -0.81978973872966532 0.093324231885174719 -0.32414754599528889 0.48404385814472184 -0.2676546393454598 0.5740301437606169 0.31894642080443231 0.2016025426213035 -0.63178489366608215 -0.31202403244505544 0.65086799282171304 0.37957170722703432 0.22855202341672387 -0.67969810559188226 0.95063237692040514 -0.99581000898420413 0.016424838469017232 -0.62451774880541278 0.89379509694245074 0.42462055689033495 0.017568033984931442 -1.0784939634485857 0.87936233173481582 0.537477135666795 -0.72608345266002816 -0.60231755632872863 -0.17494980684509256 0.44167805445210795 0.84924594554056054 0.30056060084453434 -0.26806941446877619 -0.23714297984223393 0.55256308311346758 0.49588478190576929 0.71694961092940945 0.80933428834947974 -0.618847522475934 -0.081638468795448865 0.85030243034025643 0.59375700719063851 -0.85462097431810358 0.34011130885596008 0.40023339097814947 0.58265150513874453 0.89838868934254135 -0.67954113753211187 -0.96016659410367045 -0.30844742840758321 -0.65027522942199056 -0.73919673076937653 0.87132532084062775 0.041115900690811918 0.5923483098809369 0.67713907195403067 -0.51632282837641696 -0.75121658942679359 0.65514285862322341;0.70998022840502883 0.021458173647655072 0.38004466011607774 -0.045308111594572487 -0.43444051463118533 0.76140320467230094 0.48659116028688326 -0.061584550763348907 -0.53378707836878314 0.77917405207867096 0.42806544801554214 -0.72676863110471324 0.27851511987913474 -0.98804347706410744 0.063195544151231797 0.18263932886356474 -0.14757550394158481 0.92183796506688653 0.76657100754001806 0.64338383632911733 -0.79401217829346604 0.15572982809878338 -0.12751146256770865 -0.52358704340472917 -0.83715027082989113 0.65811549557516758 0.076794982429950712 0.61886165789544123 0.60426172602636863 0.30079929747182071 0.50313073924856622 -0.49511039655868427 0.63163139593427842 -0.95112838570165315 0.042110618617867676 0.43609015754729141 0.50963881715436465 0.2732392215631147 0.54577270236845521 0.18624033842135118 -0.95775363853809758 -0.30022659625567799 -0.16143547789941395 0.3395101735390868 -0.63954748789054672 -0.4820512453666792 0.4193140269212412 0.56446508970762133 -0.88752867010510106 0.52839562573990217 -0.17237158902115393 -0.23021593330699236 -0.3394480938509814 0.69899258920300655 0.63622729073981621 0.84627115194678026 0.95020333433278581 0.27785552914146594 0.81815047403051733 -0.066985523958855292 0.3221215929317866 -0.12234880765577481 0.22266662114037411 0.095902683133772315 0.67616603826531674 0.74158043117355099 0.81148108631912363 -0.087255143284654044 -0.19165168924438014 -0.72534763363073118 -0.49071286542384496 -0.078752869127010128 -0.19081047903376747 0.55344370033757562 -0.24735513373601997 -0.51698303511554167 0.78233012857468875 0.4116582339626953 -0.89437931208667232 0.61783014672069791 -0.56039602975214586 -0.86620276485470793 -0.21192278941285672 0.78569802529816168 0.1134371564186374 -0.92198716781901557 0.50393420895807561 0.40470887519203808 0.72723132811290803 -0.049723864684985034 0.42333170254178826 0.25910442240826831 0.0084161695585698651 0.86409927633990125 -0.47592681918080537 1.0035548299028529 0.1663531569327846 -0.020029708272756842 -0.41864828400265003 -0.22622382684294873 -0.76773701554285267 1.0087699781015065 0.10348288034440985 0.74362979200429113 0.84658811046875027 -0.31029912042276381 -0.25593149549376354 -0.036616007448045676 0.90971123812947585 0.97902399677212082 -0.55802590766823212 0.45346243991901208 0.053092926070746047 0.17460591782765936 0.36614629818599742 -0.19811687727930691 -0.69767177936551572 -0.10548826793481841 0.37491802999504764 0.8961943783959837 -0.01556308954763401 0.64906759803502589 -1.0444672279287501 0.31581659569557796 -0.52174488148438547 0.69168455724079547 -0.30425360696258263 -0.50674277233224219 0.044504762975806626 -0.73751593747528421 -0.040995782584453938 0.81832005738817337 0.11780533052457037 0.38948954735980335 0.091668513275239075 0.81062812639039983 0.86448178348185534 0.2589363601054277 -0.2362626593899457 0.20623181768874277 -0.8547661027843686 -0.25719941790963108 0.7371115253737367 -0.50478157316236794 -0.91064223677950107 0.46741226960043875 -0.4617772039148953 -0.065160535212145348 -0.61838147015602862 -0.39224808044649878 0.49671970155972289 -0.90015989216340631 0.90345891606599249 0.01529731331578906 -0.86393500149622382 -0.30177745272578582 0.04976838214303219 -0.18409912605640127 0.51112800486403642 -0.22227596573494754 0.45069866066689512 0.44934234373584941 -0.74582984017493137 -0.949694439702372 0.76225517658545461 0.020987111084406165 -0.45275447602278668 -0.1051283477865561 0.91607498331595938 -0.61362118784884112 0.76120374176745165 0.17717685038972569 -0.12560863133876976 0.35888470375852116 -0.096824796740817051 -0.89848246887438166 0.88953649064353046 -0.50867583633026014 -0.29791570817045815 0.21584017537175884 -0.47887188413904458 0.26333281626427613 0.22851136448121093 -0.24332448604448551 -0.54648469541530775 -0.42396143835043487 -0.23151902031985672 -0.42297980399583146 -0.21861589307042723 0.049423840834058604 -0.68253889130947698 -0.34768488199420555 -0.6848366481645568 -0.53775819435139027 0.79008765628449229 -0.34667572003490887 -0.81309837880089064 0.77506302651277603 -0.49100605460139374 0.40307697065925552 0.96770705259960121 0.91550320677698027 -0.97398745391993746 -0.73312313198143897 0.22629978812008988 0.34613290420641979 -0.7082545526006615 0.086048742421751007 0.59602734937751822 -0.22260281996144773 0.91019570198764543 0.96056813051299395 0.66970487782022581 -0.86551771264757138 -0.01990581181634548 -0.048117170036310976 0.18751481378123411 -0.79866462003770966 0.67426490267521555 -0.92743195277433399 0.095421860728568356 0.2913731931262073 0.76907408353672047 0.94972588159039417 -0.93790290747271265 0.01782741400840895 -0.20579182541087571 0.57153200358366374 0.78316127671806002 0.95168503665391302 -0.20636054628857578 0.45430530386454071 -0.29176617539579192 -0.75848246052803658 -0.4695245410116265 0.029250278405712267 0.11113705486447642 0.1284772648135101 0.40437897941883921 -0.39450923964294748 -0.019550044591223777 0.15622267165428119 0.66039059506361053 -0.90302184063319479 -0.45367643958821047 -0.97619696733529482 -0.61464466844474275 -0.47864468754374928 -0.82709006404457031 -0.3177846965813424 -0.12520310327931086 0.37316255443290819 -0.48235713554067544 0.75777912174937323 0.6558331978119214 0.43343216513519228 0.71125044185254893 0.58701706402126785 -1.0532009800138766 0.077322393797256625 0.38831294910023256 0.07385435772030037 0.77006517279857445 0.67263700337449606 -0.32892995344868542 -0.77643897151266805 1.0153165700922411 0.035487466768651728 0.77934350952749176 -0.549550425710298 0.49963470531972332 0.52443243551222563 0.087631311923042077 -0.2562191941147452 -0.1688952976381736 -0.64071034917154912 0.0086816588840548103 0.75458835313721806 -0.75147625546361585 0.46553141574581969 -0.25105863931384742 -0.44805626601635706 0.79146605973999318 -0.36432721351781888 0.24695141866978212 0.79462259898299692 -0.31438054189624542 0.65290105953203648 -0.83850083571199652 -0.13863156997098394 0.39067158562775905 0.90235986503991561 0.54903983529850342 -0.077702520222365123 0.67167201123510867 0.082884035772803996 0.077162034795005705 0.32653961933853581 -0.45621785748126253 -0.73362746706665938 -0.67701873338774199 -0.15403502433510885 0.57596567815263855 0.40627954515135756 -0.47463819647948979 -0.55058140107388553 0.0044203385072329503 -0.43786473935764103 0.68527099542587955 -0.96438176338227466 -0.47360254738016899 0.82501694230434175 -0.52217879489640529 0.54474130774899143 0.70955175564197115 0.87410537836809654 -0.20468467361319076 0.24212986664219138 0.29690352247803031 -0.61312586755657905 -0.6166158914862423 -0.61998744950850759 -0.070404650021217777 0.70360762982402625 0.47444611227785083 -0.23717431754705801 -0.77840590754984529 0.65552069957740045 0.92475608909463947 0.5606018600142415 -0.43048420700136142 -0.54813084961790481 -0.37672805445367002 0.73464031317339418 0.4468228341774369 -0.64921954155226891 0.23722214421794041 -0.16308065393479337 0.82485528574981259 0.21395427791503918 0.72393136567830629 -0.38799547727180317 -7.2357877643280409e-05 -0.23057637025255512 -0.93585873953996623 -0.062684013991988974 0.73701492228684151 -0.78654921752617724 0.16830589673939209 -0.18836818302241723 0.29578209458858074 -0.36882875867152792 0.73579528266219596 0.92382784616971869 -0.82097837133702745 -0.87874705838559808 -0.38482493850539745 -0.37151484848550564 -0.61442863098316836 0.7096776211992315 0.4648884016760349 -0.93166590586666786 -0.46855185460485299 -0.37398985953551628 0.71623004956046243 0.77029029345658784 0.2331998798931747 0.30713570394368178 -0.91624916890238439 0.33238912258565451 0.52415059534727559 -0.70668530574178867 -0.76295414024909758 -0.805685740466072 -1.0200019850927706 -0.17394990885117359 -0.89589005584815051 -0.095046669769375938 -0.67481472758558847 -0.56245797984568913 -0.83495325618578498 0.79751049175279121 -0.42999931581087986 0.85863226002192528 -0.69291515575593576 -0.63428627817020822 -0.38930953885805508 0.68028909602360965 0.20804249920121914 0.30334140200419646 -0.29529932796681063 -0.015063598658095617 -0.41883322600951534 0.74961924543044633 0.71745594626379694 0.35884781022030615 0.28247880780708934 0.70714336588523152 -0.47004616060520849 1.0504986626407591 0.71479722765233977 0.15050325985180357 0.0099729293594538818 -0.13422288597842244 0.25268984943930345 0.067890214597730883 -0.32300321771280066 0.28658667356460243 0.48185054764935148 -0.66958058320243374 -0.65602554707870442 0.61785338050988992 -0.90349795532061083 -0.1599930528608173 0.22370077870363428 -0.2949365384015824 -0.626507698222878 -0.52582737307733629 0.82815646345113259 -0.74849615020168225 0.76839079259597742 -0.85634563353624382 -0.79811796145810954 -0.82341223551979104 -0.51452706717863828 0.060769497707991463 0.9845240217311112 0.81288100285104559 0.91230629397828744 0.43536542207823847 -0.84490966694741965 0.10519410701920923 0.54725163022750367 -0.67141518007566636 -0.28977518268596031 0.561259324255306 -0.044876167333299549 0.093299104869244254 0.6915097979276702 -0.90955135845376367 -0.60176061751046939 -0.56661841453615536 0.0089813467271458308 -0.14695381841108543 0.63913065773614319 -1.0283397654456565 0.52846018258161409 -0.68610008417750801 0.26688034764517943 0.46579583878864761 -0.62530700496923874 0.81219454813027969 0.20833625890660187 0.065030431671855876 -0.70848733208882464 -0.54712562125962128 -0.73629350101587987 -0.96454120609149985 0.94792228571843618 0.71195405017361024 0.27523954600317618 -0.77789439783362324 -0.86947399073806619 0.70516819776941464 0.13721459421497076 0.68081213139921348 -0.78059008612192693 0.68363369245255146 0.75398250912764153 -0.4667396404069683 -0.10191679179730599 -0.65636766050668005 0.64680177801736305 -0.75245479992282538 0.65908460721534046 0.29159190995105183 0.87999146415727825 -0.73740764701365247 0.66181271260743813 0.043261665690134038 0.98288629661172611 -0.024729582501105119 0.47767121539664931 -0.81936081472384648 -0.9165737673529174 -0.78496314673375189 -0.72836924148668714 -0.9802492710306252 0.033931454311997122 0.8598129801879596 0.27703843945011253 -0.90455706822472814 0.97698477683830098 0.44310644111218561 0.40531153482248666 0.86769062812039011 0.55270672001523979 0.85058884284486624 -0.45666389837536842 -0.79025059766660666];
  
  % ===== SIMULATION ========
  
  % Format Input Arguments
  isCellX = iscell(X);
  if ~isCellX, X = {X}; end;
  
  % Dimensions
  TS = size(X,2); % timesteps
  if ~isempty(X)
    Q = size(X{1},2); % samples/series
  else
    Q = 0;
  end
  
  % Allocate Outputs
  Y = cell(1,TS);
  
  % Time loop
  for ts=1:TS
  
    % Input 1
    Xp1 = mapminmax_apply(X{1,ts},x1_step1_gain,x1_step1_xoffset,x1_step1_ymin);
    
    % Layer 1
    a1 = tansig_apply(repmat(b1,1,Q) + IW1_1*Xp1);
    
    % Layer 2
    a2 = softmax_apply(repmat(b2,1,Q) + LW2_1*a1);
    
    % Output 1
    Y{1,ts} = a2;
  end
  
  % Final Delay States
  Xf = cell(1,0);
  Af = cell(2,0);
  
  % Format Output Arguments
  if ~isCellX, Y = cell2mat(Y); end
end

% ===== MODULE FUNCTIONS ========

% Map Minimum and Maximum Input Processing Function
function y = mapminmax_apply(x,settings_gain,settings_xoffset,settings_ymin)
  y = bsxfun(@minus,x,settings_xoffset);
  y = bsxfun(@times,y,settings_gain);
  y = bsxfun(@plus,y,settings_ymin);
end

% Competitive Soft Transfer Function
function a = softmax_apply(n)
  nmax = max(n,[],1);
  n = bsxfun(@minus,n,nmax);
  numer = exp(n);
  denom = sum(numer,1); 
  denom(denom == 0) = 1;
  a = bsxfun(@rdivide,numer,denom);
end

% Sigmoid Symmetric Transfer Function
function a = tansig_apply(n)
  a = 2 ./ (1 + exp(-2*n)) - 1;
end
